<?xml version="1.0"?>
<MethodSetup Method="DNN::kDNN">
  <GeneralInfo>
    <Info name="TMVA Release" value="4.2.1 [262657]"/>
    <Info name="ROOT Release" value="6.16/00 [397312]"/>
    <Info name="Creator" value="taohuang"/>
    <Info name="Date" value="Thu May 28 01:41:54 2020"/>
    <Info name="Host" value="Darwin TaoHuangs-MacBook-Pro.local 18.5.0 Darwin Kernel Version 18.5.0: Mon Mar 11 20:40:32 PDT 2019; root:xnu-4903.251.3~3/RELEASE_X86_64 x86_64"/>
    <Info name="Dir" value="/Users/taohuang/Documents/DiHiggs/HH_TF_KERAS_2020"/>
    <Info name="Training events" value="1198830"/>
    <Info name="TrainingTime" value="7.04167647e+02"/>
    <Info name="AnalysisType" value="Classification"/>
  </GeneralInfo>
  <Options>
    <Option name="V" modified="Yes">True</Option>
    <Option name="VerbosityLevel" modified="No">Verbose</Option>
    <Option name="VarTransform" modified="Yes">N</Option>
    <Option name="H" modified="Yes">False</Option>
    <Option name="CreateMVAPdfs" modified="No">False</Option>
    <Option name="IgnoreNegWeightsInTraining" modified="No">False</Option>
    <Option name="Layout" modified="No">SOFTSIGN|(N+100)*2,LINEAR</Option>
    <Option name="ValidationSize" modified="No">20%</Option>
    <Option name="ErrorStrategy" modified="Yes">CROSSENTROPY</Option>
    <Option name="WeightInitialization" modified="Yes">XAVIERUNIFORM</Option>
    <Option name="Architecture" modified="Yes">CPU</Option>
    <Option name="TrainingStrategy" modified="No">LearningRate=1e-1,Momentum=0.3,Repetitions=3,ConvergenceSteps=50,BatchSize=30,TestRepetitions=7,WeightDecay=0.0,Renormalize=L2,DropConfig=0.0,DropRepetitions=5|LearningRate=1e-4,Momentum=0.3,Repetitions=3,ConvergenceSteps=50,BatchSize=20,TestRepetitions=7,WeightDecay=0.001,Renormalize=L2,DropConfig=0.0+0.5+0.5,DropRepetitions=5,Multithreading=True</Option>
  </Options>
  <Variables NVar="12">
    <Variable VarIndex="0" Expression="jj_M" Label="jj_M" Title="jj_M" Unit="" Internal="jj_M" Type="F" Min="1.07628918e+01" Max="3.88320996e+03"/>
    <Variable VarIndex="1" Expression="hme_h2mass_reco" Label="hme_h2mass_reco" Title="hme_h2mass_reco" Unit="" Internal="hme_h2mass_reco" Type="F" Min="-1.00000000e+00" Max="1.19950000e+03"/>
    <Variable VarIndex="2" Expression="jj_pt" Label="jj_pt" Title="jj_pt" Unit="" Internal="jj_pt" Type="F" Min="7.92610869e-02" Max="1.50958301e+03"/>
    <Variable VarIndex="3" Expression="ll_pt" Label="ll_pt" Title="ll_pt" Unit="" Internal="ll_pt" Type="F" Min="8.81454721e-02" Max="1.15431726e+03"/>
    <Variable VarIndex="4" Expression="ll_M" Label="ll_M" Title="ll_M" Unit="" Internal="ll_M" Type="F" Min="1.20000811e+01" Max="7.59999695e+01"/>
    <Variable VarIndex="5" Expression="ll_DR_l_l" Label="ll_DR_l_l" Title="ll_DR_l_l" Unit="" Internal="ll_DR_l_l" Type="F" Min="3.81195806e-02" Max="4.48382187e+00"/>
    <Variable VarIndex="6" Expression="jj_DR_j_j" Label="jj_DR_j_j" Title="jj_DR_j_j" Unit="" Internal="jj_DR_j_j" Type="F" Min="3.85451108e-01" Max="5.58392191e+00"/>
    <Variable VarIndex="7" Expression="llmetjj_DPhi_ll_jj" Label="llmetjj_DPhi_ll_jj" Title="llmetjj_DPhi_ll_jj" Unit="" Internal="llmetjj_DPhi_ll_jj" Type="F" Min="2.38418579e-06" Max="3.14159203e+00"/>
    <Variable VarIndex="8" Expression="llmetjj_minDR_l_j" Label="llmetjj_minDR_l_j" Title="llmetjj_minDR_l_j" Unit="" Internal="llmetjj_minDR_l_j" Type="F" Min="3.00038159e-01" Max="4.14659357e+00"/>
    <Variable VarIndex="9" Expression="llmetjj_MTformula" Label="llmetjj_MTformula" Title="llmetjj_MTformula" Unit="" Internal="llmetjj_MTformula" Type="F" Min="0.00000000e+00" Max="7.84205933e+02"/>
    <Variable VarIndex="10" Expression="isSF" Label="isSF" Title="isSF" Unit="" Internal="isSF" Type="F" Min="0.00000000e+00" Max="1.00000000e+00"/>
    <Variable VarIndex="11" Expression="mt2" Label="mt2" Title="mt2" Unit="" Internal="mt2" Type="F" Min="2.17379818e+01" Max="1.59961853e+03"/>
  </Variables>
  <Spectators NSpec="0"/>
  <Classes NClass="2">
    <Class Name="Signal" Index="0"/>
    <Class Name="Background" Index="1"/>
  </Classes>
  <Transformations NTransformations="1">
    <Transform Name="Normalize">
      <Selection>
        <Input NInputs="12">
          <Input Type="Variable" Label="jj_M" Expression="jj_M"/>
          <Input Type="Variable" Label="hme_h2mass_reco" Expression="hme_h2mass_reco"/>
          <Input Type="Variable" Label="jj_pt" Expression="jj_pt"/>
          <Input Type="Variable" Label="ll_pt" Expression="ll_pt"/>
          <Input Type="Variable" Label="ll_M" Expression="ll_M"/>
          <Input Type="Variable" Label="ll_DR_l_l" Expression="ll_DR_l_l"/>
          <Input Type="Variable" Label="jj_DR_j_j" Expression="jj_DR_j_j"/>
          <Input Type="Variable" Label="llmetjj_DPhi_ll_jj" Expression="llmetjj_DPhi_ll_jj"/>
          <Input Type="Variable" Label="llmetjj_minDR_l_j" Expression="llmetjj_minDR_l_j"/>
          <Input Type="Variable" Label="llmetjj_MTformula" Expression="llmetjj_MTformula"/>
          <Input Type="Variable" Label="isSF" Expression="isSF"/>
          <Input Type="Variable" Label="mt2" Expression="mt2"/>
        </Input>
        <Output NOutputs="12">
          <Output Type="Variable" Label="jj_M" Expression="jj_M"/>
          <Output Type="Variable" Label="hme_h2mass_reco" Expression="hme_h2mass_reco"/>
          <Output Type="Variable" Label="jj_pt" Expression="jj_pt"/>
          <Output Type="Variable" Label="ll_pt" Expression="ll_pt"/>
          <Output Type="Variable" Label="ll_M" Expression="ll_M"/>
          <Output Type="Variable" Label="ll_DR_l_l" Expression="ll_DR_l_l"/>
          <Output Type="Variable" Label="jj_DR_j_j" Expression="jj_DR_j_j"/>
          <Output Type="Variable" Label="llmetjj_DPhi_ll_jj" Expression="llmetjj_DPhi_ll_jj"/>
          <Output Type="Variable" Label="llmetjj_minDR_l_j" Expression="llmetjj_minDR_l_j"/>
          <Output Type="Variable" Label="llmetjj_MTformula" Expression="llmetjj_MTformula"/>
          <Output Type="Variable" Label="isSF" Expression="isSF"/>
          <Output Type="Variable" Label="mt2" Expression="mt2"/>
        </Output>
      </Selection>
      <Class ClassIndex="0">
        <Ranges>
          <Range Index="0" Min="1.2620744705200195e+01" Max="3.8832099609375000e+03"/>
          <Range Index="1" Min="-1.0000000000000000e+00" Max="1.1995000000000000e+03"/>
          <Range Index="2" Min="6.6397744417190552e-01" Max="1.4702941894531250e+03"/>
          <Range Index="3" Min="1.3738162517547607e+00" Max="1.1543172607421875e+03"/>
          <Range Index="4" Min="1.2000203132629395e+01" Max="7.5999961853027344e+01"/>
          <Range Index="5" Min="3.8119580596685410e-02" Max="4.2134671211242676e+00"/>
          <Range Index="6" Min="3.9688318967819214e-01" Max="5.5839219093322754e+00"/>
          <Range Index="7" Min="1.6951560974121094e-04" Max="3.1415860652923584e+00"/>
          <Range Index="8" Min="3.0097231268882751e-01" Max="4.1438927650451660e+00"/>
          <Range Index="9" Min="0.0000000000000000e+00" Max="7.8420593261718750e+02"/>
          <Range Index="10" Min="0.0000000000000000e+00" Max="1.0000000000000000e+00"/>
          <Range Index="11" Min="2.3711557388305664e+01" Max="1.5996185302734375e+03"/>
        </Ranges>
      </Class>
      <Class ClassIndex="1">
        <Ranges>
          <Range Index="0" Min="1.0762891769409180e+01" Max="3.3155151367187500e+03"/>
          <Range Index="1" Min="-1.0000000000000000e+00" Max="1.1995000000000000e+03"/>
          <Range Index="2" Min="7.9261086881160736e-02" Max="1.5095830078125000e+03"/>
          <Range Index="3" Min="8.8145472109317780e-02" Max="7.0397998046875000e+02"/>
          <Range Index="4" Min="1.2000081062316895e+01" Max="7.5999969482421875e+01"/>
          <Range Index="5" Min="9.7096838057041168e-02" Max="4.4838218688964844e+00"/>
          <Range Index="6" Min="3.8545110821723938e-01" Max="5.5401759147644043e+00"/>
          <Range Index="7" Min="2.3841857910156250e-06" Max="3.1415920257568359e+00"/>
          <Range Index="8" Min="3.0003815889358521e-01" Max="4.1465935707092285e+00"/>
          <Range Index="9" Min="0.0000000000000000e+00" Max="5.1187289428710938e+02"/>
          <Range Index="10" Min="0.0000000000000000e+00" Max="1.0000000000000000e+00"/>
          <Range Index="11" Min="2.1737981796264648e+01" Max="1.3272457275390625e+03"/>
        </Ranges>
      </Class>
      <Class ClassIndex="2">
        <Ranges>
          <Range Index="0" Min="1.0762891769409180e+01" Max="3.8832099609375000e+03"/>
          <Range Index="1" Min="-1.0000000000000000e+00" Max="1.1995000000000000e+03"/>
          <Range Index="2" Min="7.9261086881160736e-02" Max="1.5095830078125000e+03"/>
          <Range Index="3" Min="8.8145472109317780e-02" Max="1.1543172607421875e+03"/>
          <Range Index="4" Min="1.2000081062316895e+01" Max="7.5999969482421875e+01"/>
          <Range Index="5" Min="3.8119580596685410e-02" Max="4.4838218688964844e+00"/>
          <Range Index="6" Min="3.8545110821723938e-01" Max="5.5839219093322754e+00"/>
          <Range Index="7" Min="2.3841857910156250e-06" Max="3.1415920257568359e+00"/>
          <Range Index="8" Min="3.0003815889358521e-01" Max="4.1465935707092285e+00"/>
          <Range Index="9" Min="0.0000000000000000e+00" Max="7.8420593261718750e+02"/>
          <Range Index="10" Min="0.0000000000000000e+00" Max="1.0000000000000000e+00"/>
          <Range Index="11" Min="2.1737981796264648e+01" Max="1.5996185302734375e+03"/>
        </Ranges>
      </Class>
    </Transform>
  </Transformations>
  <MVAPdfs/>
  <Weights InputWidth="12" Depth="2" LossFunction="C" OutputFunction="S">
    <Layer ActivationFunction="5">
      <Weights rows="224" cols="12">
        -3.5362007617950439e+00 1.8999586105346680e+00 3.0305838584899902e+00 1.1928892135620117e+00 -6.9802331924438477e-01 1.1359989643096924e+00 -2.9711027145385742e+00 2.8411915898323059e-01 8.2970142364501953e-01 -4.8657062649726868e-01 -1.4391141012310982e-02 3.8764486312866211e+00 -1.8790706992149353e-01 2.7335723862051964e-02 -2.7535361051559448e-01 -2.0238238573074341e-01 4.6965923160314560e-02 -1.5276066958904266e-01 2.5209659337997437e-01 -2.8824761975556612e-03 -8.6679339408874512e-02 2.3490700125694275e-01 6.7793116904795170e-03 2.4837549030780792e-01 -8.0011762678623199e-02 -1.3725626468658447e-01 -4.5724770426750183e-01 1.5235472917556763e+00 7.5492024421691895e-01 -3.0882716178894043e+00 -4.6403864026069641e-01 -3.0280450358986855e-02 2.6993995904922485e-01 2.0505735874176025e+00 4.6751176705583930e-04 -1.2003492116928101e+00 -2.5372594594955444e-01 1.6368977725505829e-01 2.3917768895626068e-01 5.0987404584884644e-01 -2.7832714840769768e-02 1.1152367293834686e-01 6.0311459004878998e-02 -3.3904320001602173e-01 1.6823014616966248e-01 -3.3950230479240417e-01 1.9088767468929291e-02 -4.1105803847312927e-01 5.1530289649963379e-01 7.1217757463455200e-01 -1.3074301481246948e+00 2.3508997261524200e-01 -2.0545792579650879e+00 8.7771825492382050e-02 -2.4120850861072540e-01 2.4072706699371338e-01 -1.1937689967453480e-02 -3.5323196649551392e-01 1.3195095956325531e-01 -1.3415100574493408e+00 -1.9740914106369019e+00 -1.4960712194442749e+00 1.7642444372177124e+00 1.2508460283279419e+00 -3.5701966285705566e-01 8.0641549825668335e-01 -2.4848082065582275e+00 1.3537825345993042e+00 2.5013583898544312e-01 1.0977573394775391e+00 6.8486020900309086e-03 2.7682387828826904e+00 5.7693326473236084e-01 4.6096700429916382e-01 -1.1032945662736893e-01 -5.7020854949951172e-01 8.2508116960525513e-02 3.5306900739669800e-02 -2.6454406976699829e-01 6.9404654204845428e-02 -1.5016968548297882e-01 5.4389055818319321e-02 -1.9450670108199120e-02 5.3244397044181824e-02 -2.1113409996032715e+00 6.9432812929153442e-01 -1.4346401393413544e-01 4.2895276099443436e-02 5.2113801240921021e-01 6.5616506338119507e-01 -4.0255913138389587e-01 -1.5218146145343781e-01 4.5184731483459473e-01 -7.0585960149765015e-01 1.3452640175819397e-01 -3.0587452650070190e-01 -5.5943888425827026e-01 -1.9253931045532227e+00 8.8965483009815216e-02 -1.2816026210784912e+00 -1.9748148322105408e-01 7.6706814765930176e-01 4.2008135467767715e-02 -4.3851904571056366e-02 -2.8342866897583008e-01 3.0291774272918701e+00 -3.0528340488672256e-02 1.5908443927764893e+00 -6.7254966497421265e-01 1.6693170368671417e-01 8.7097400426864624e-01 6.4309930801391602e-01 -1.2803816795349121e-01 1.1897621303796768e-01 8.8432168960571289e-01 1.4425798654556274e+00 -5.1954811811447144e-01 -1.2432438880205154e-01 -4.4337589293718338e-02 7.4360430240631104e-01 -1.8801522254943848e-01 6.8102158606052399e-02 -2.2586470469832420e-02 -2.9128983616828918e-01 -2.7782877907156944e-02 3.8428165018558502e-02 2.4790327250957489e-01 -1.7817930877208710e-01 2.8968214988708496e-01 -1.0504236072301865e-01 3.2716537825763226e-03 3.2478630542755127e-01 -4.1110485792160034e-01 -3.0839312821626663e-02 1.3665577769279480e-01 9.4216540455818176e-02 -5.9552460908889771e-01 2.7743317186832428e-02 5.7115894556045532e-01 -1.2335553020238876e-01 -2.6757510378956795e-02 -2.0943866670131683e-01 -5.1155094057321548e-02 2.3993954062461853e-01 -7.5439369678497314e-01 9.7929023206233978e-02 3.5559032112360001e-02 6.0696840286254883e-01 -1.7811170220375061e-01 -2.3007619380950928e-01 3.1073632836341858e-01 -8.5242427885532379e-02 -5.1067620515823364e-02 2.2912426292896271e-01 -1.4895509229972959e-03 1.7339043319225311e-02 1.7004944086074829e+00 -7.4030622839927673e-02 -7.0959758758544922e-01 -1.1139620542526245e+00 2.1168065071105957e-01 -6.5851342678070068e-01 9.9443840980529785e-01 -7.3436045646667480e-01 -1.1425062268972397e-01 -1.0640972852706909e+00 -1.0727439075708389e-01 -9.0486389398574829e-01 -3.5368049144744873e-01 -8.4042951464653015e-02 2.1332395076751709e-01 -8.6422359943389893e-01 -8.5808359086513519e-02 3.6234447360038757e-01 3.5813885927200317e-01 -4.8371911048889160e-02 -1.3542683422565460e-01 1.0396386384963989e+00 -3.0965549871325493e-02 7.9059380292892456e-01 1.4244174957275391e-01 -8.1821866333484650e-02 -2.6093052700161934e-02 5.3885648958384991e-03 -1.2246254086494446e-01 3.1949222087860107e-02 -1.9396777451038361e-01 2.8586804866790771e-01 1.3143131136894226e-01 1.4025256037712097e-01 3.3094000071287155e-02 2.7180606126785278e-01 1.8072330858558416e-03 5.7162705808877945e-02 -3.9479225873947144e-01 3.4478381276130676e-01 -1.0919574648141861e-01 1.3125687837600708e-01 2.5908240675926208e-01 1.8400986492633820e-01 -3.7271094322204590e-01 2.5196284055709839e-02 6.5827821381390095e-03 -6.8721838295459747e-02 -5.2618708461523056e-02 4.4271463155746460e-01 -2.8062766790390015e-01 -3.0238500237464905e-01 6.3172996044158936e-02 1.8329238891601562e-01 1.3491810858249664e-01 -6.4699329435825348e-02 -2.7184522151947021e-01 4.9002298712730408e-01 2.6196386665105820e-02 3.1348767876625061e-01 -1.0742951631546021e+00 -9.3512870371341705e-02 5.1191753149032593e-01 2.7546477317810059e-01 -6.2293809652328491e-01 1.3474704027175903e+00 2.5872170925140381e-01 1.0078015923500061e-01 -4.3144091963768005e-02 -6.6082370281219482e-01 1.0043018497526646e-02 3.0389973521232605e-01 2.7044156193733215e-01 -3.5333758592605591e-01 -1.6971105337142944e-01 -1.1603951454162598e-01 1.8691861629486084e-01 -3.0647477507591248e-01 -2.3814161121845245e-01 1.1024186760187149e-01 -1.4487960934638977e-01 1.7053550481796265e-01 7.2090807370841503e-03 3.5634067654609680e-01 1.1786710023880005e+00 -7.5459562242031097e-02 1.2351490557193756e-02 -7.5712960958480835e-01 -3.8926622271537781e-01 4.2832121253013611e-01 5.0876396894454956e-01 3.4007501602172852e-01 -3.8325545191764832e-01 1.6850695013999939e-01 1.0324852913618088e-01 -6.0268777608871460e-01 1.4940903186798096e+00 -3.8252689838409424e+00 -1.6682242155075073e+00 1.4043480157852173e+00 -1.4979071915149689e-01 8.9226865768432617e-01 -1.8003798723220825e+00 5.8641314506530762e-02 1.1988189816474915e-01 7.3600840568542480e-01 3.5619366914033890e-02 -5.5007624626159668e+00 1.2219816446304321e+00 -7.5992517173290253e-02 1.0019551515579224e+00 3.7180631160736084e+00 -6.2019997835159302e-01 1.5112811326980591e-01 3.6068791151046753e-01 2.4042268097400665e-01 2.5151854753494263e-01 -9.5584077835083008e+00 -4.8637643456459045e-02 -3.4094026088714600e+00 -5.1347684860229492e-01 7.7000886201858521e-01 3.4759387373924255e-01 -7.0576339960098267e-01 1.2793762683868408e+00 -1.4815843105316162e-01 5.8955210447311401e-01 -3.5169655084609985e-01 -3.5891795158386230e-01 5.4933184385299683e-01 7.1806631982326508e-02 1.6548027992248535e+00 3.5331940650939941e-01 -2.5213008746504784e-02 -1.6789194941520691e-01 -4.2006134986877441e-01 1.3033699244260788e-02 3.2944168895483017e-02 -5.8682985603809357e-02 1.4847852289676666e-01 -2.2397121787071228e-01 3.3443298935890198e-01 1.7318045720458031e-02 -2.3685222864151001e-01 -6.3437718152999878e-01 1.0971815884113312e-01 -2.0048731565475464e-01 -2.2658950090408325e-01 4.9891066551208496e-01 7.4036967754364014e-01 6.2634837627410889e-01 6.5296173095703125e-02 -1.2610675096511841e+00 -4.6821513772010803e-01 3.0555160716176033e-02 1.0846433639526367e+00 -1.5095908939838409e-01 1.7265440896153450e-02 -5.7167762517929077e-01 -1.6377167701721191e+00 -2.6396867632865906e-01 8.5991394519805908e-01 -1.2918175458908081e+00 1.2065675258636475e+00 8.7028515338897705e-01 1.5412021875381470e+00 -5.6440319865942001e-02 1.3109533786773682e+00 -2.6901814341545105e-01 -8.9014154672622681e-01 2.1096614003181458e-01 7.6621824502944946e-01 2.7145707607269287e-01 -3.3167308568954468e-01 3.0542585253715515e-01 -1.3197751343250275e-01 -7.9713153839111328e-01 -3.2481536269187927e-01 -3.7019994854927063e-01 1.4992010593414307e-01 -5.3187686204910278e-01 -3.0943197011947632e-01 -3.1542444229125977e-01 3.8482111692428589e-01 -1.7156575620174408e-01 1.1162207275629044e-01 -4.4929769635200500e-01 -1.0438027977943420e-01 1.2399355322122574e-01 3.9283367991447449e-01 -9.6139535307884216e-03 8.3941422402858734e-02 -1.6951521858572960e-02 1.7794081568717957e-01 2.9903164505958557e-01 -4.8401705920696259e-02 3.0184056609869003e-02 -4.7950424253940582e-02 -4.3484243750572205e-01 3.8230262696743011e-02 1.6284801065921783e-01 -1.8913173675537109e-01 -3.2353498041629791e-02 6.0813874006271362e-01 8.1690049171447754e-01 8.3681142330169678e-01 -3.0983990430831909e-01 -2.0882676541805267e-01 -3.5215172171592712e-01 1.3183465600013733e-01 -8.0315269529819489e-02 1.6142818331718445e-01 -3.5684064030647278e-01 -3.5448852181434631e-01 8.1021683290600777e-03 -2.8948095440864563e-01 1.6821643710136414e-01 9.9732063710689545e-02 -2.6469970121979713e-02 1.9065575301647186e-01 -1.5345419943332672e-01 9.3417108058929443e-02 1.0610795766115189e-01 -9.0417690575122833e-02 -2.7511259540915489e-02 -1.5652748942375183e-01 -7.7815204858779907e-03 -1.3464693725109100e-01 3.9361032843589783e-01 -1.4949515461921692e-01 -1.4094513654708862e-01 -1.5679502487182617e-01 -8.3131231367588043e-03 -3.5087369382381439e-02 3.2614436000585556e-02 1.8203014507889748e-02 1.1002491414546967e-01 -2.7551093697547913e-01 -2.4688031990081072e-03 1.7718581855297089e-01 -1.2191251516342163e+00 -1.5543519258499146e+00 3.7373456358909607e-01 8.4514600038528442e-01 1.8937634304165840e-02 5.4246172308921814e-02 -6.1131620407104492e-01 1.7730196937918663e-02 -2.9566174745559692e-01 2.8378275036811829e-01 -8.6651220917701721e-03 4.1561955213546753e-01 -8.1081926822662354e-02 -1.5816070139408112e-01 -3.6829829216003418e-01 2.2664280235767365e-01 -2.4400878697633743e-02 2.4351349566131830e-03 -7.8217893838882446e-02 -1.6603103280067444e-01 5.0606384873390198e-02 -2.0874378969892859e-04 -1.0438520461320877e-02 2.5803291797637939e-01 2.9113936424255371e-01 4.6509709954261780e-01 1.2278559058904648e-01 -2.4012190103530884e-01 -2.4200411513447762e-02 -2.0695908367633820e-01 1.4416997134685516e-01 2.0272053778171539e-01 1.4136406779289246e-01 5.3075004369020462e-02 5.0259627401828766e-02 -1.9149793684482574e-01 -2.0526819229125977e+00 5.5920159816741943e-01 3.1313887238502502e-01 9.9472582340240479e-02 -2.2527879104018211e-02 1.1727174520492554e+00 -1.3871615519747138e-03 7.6298081874847412e-01 -1.0741618871688843e+00 -5.5915051698684692e-01 -1.4335365593433380e-01 -1.3765287399291992e+00 -2.1788425743579865e-01 5.6750666350126266e-02 4.3865106999874115e-02 -2.0632572472095490e-01 4.0390614420175552e-02 1.0696027893573046e-03 -1.3941740989685059e-01 5.6940019130706787e-02 2.3446241393685341e-02 -1.7625118792057037e-01 -4.9817287363111973e-03 4.8799312114715576e-01 2.4152688980102539e+00 -1.3724592328071594e-01 -3.7585167884826660e+00 -4.5242875814437866e-01 -2.1936467383056879e-03 4.0998291969299316e-01 -3.3347885608673096e+00 7.4342094361782074e-02 5.4252218455076218e-02 8.7666380405426025e-01 -3.1626888085156679e-03 -1.6441234350204468e+00 6.0687728226184845e-02 3.2277658581733704e-01 -2.9887115582823753e-02 2.1191868185997009e-01 -2.5120717287063599e-01 2.4674445390701294e-01 -6.5491265058517456e-01 2.2288036998361349e-03 -9.5941774547100067e-02 -4.0361994504928589e-01 9.3662142753601074e-03 4.7272670269012451e-01 3.1125649809837341e-01 6.2328213453292847e-01 -2.6329961419105530e-01 -6.1116367578506470e-02 5.2644308656454086e-02 -2.1390734612941742e-01 -3.2772493362426758e-01 -3.6529637873172760e-02 1.0881873220205307e-01 -2.1461763978004456e-01 4.7526516020298004e-02 3.2942476868629456e-01 -1.3676285743713379e-01 2.4773614108562469e-01 8.2853294909000397e-02 -8.1117838621139526e-02 1.1852008104324341e-01 -3.4216004610061646e-01 1.1113007366657257e-01 -5.6575555354356766e-02 -2.4411807954311371e-01 2.9124626517295837e-01 2.7621269691735506e-03 2.4586150050163269e-01 4.8646625876426697e-01 -1.5736642479896545e-01 -2.5122743844985962e-01 -3.6392971873283386e-01 -4.0653487667441368e-03 1.1428076773881912e-01 -2.8172990679740906e-01 1.5149675309658051e-01 -1.1375832371413708e-02 3.7603178620338440e-01 -2.3957279045134783e-03 -2.1353819966316223e-01 -1.6530098021030426e-01 -9.5944799482822418e-02 4.2739844322204590e-01 -4.9322310835123062e-02 -2.6256167888641357e-01 3.0393829941749573e-01 -2.5379848480224609e-01 1.7836825549602509e-01 -2.1607409417629242e-01 -4.1403453797101974e-02 1.2268738355487585e-03 -4.2730182409286499e-02 -4.4199366122484207e-02 1.3120085000991821e-01 -2.7507793903350830e-01 -2.1819885075092316e-01 -1.9779663532972336e-02 -2.9485080391168594e-02 -2.8179860115051270e-01 -1.3313752412796021e-01 3.6686015129089355e-01 2.9573491215705872e-01 2.9948543757200241e-02 6.5148055553436279e-02 -1.5216184854507446e+00 6.0569965839385986e-01 1.4324734210968018e+00 -2.3089374601840973e-01 -1.0346780717372894e-01 -3.4494927525520325e-01 1.8384445905685425e+00 -4.9252101778984070e-01 -4.3459826707839966e-01 6.0656845569610596e-01 -1.5916388481855392e-02 1.0839016437530518e+00 -4.3952241539955139e-01 2.6059696078300476e-01 -1.0074855387210846e-01 6.8330150842666626e-01 5.6260660290718079e-02 -2.0793749392032623e-01 2.1352860331535339e-01 -5.4935801774263382e-02 -2.7375164628028870e-01 -2.5532189011573792e-01 -1.9419301534071565e-03 2.6643234491348267e-01 5.9511047601699829e-01 -1.6162486374378204e-01 -3.2883286476135254e-01 -2.2093649208545685e-01 -8.4752343595027924e-02 -9.1214090585708618e-02 6.2325191497802734e-01 1.4980372786521912e-01 -3.5891416668891907e-01 4.7032439708709717e-01 4.9378663301467896e-02 -3.6712673306465149e-01 6.5825231373310089e-02 3.8158103823661804e-01 -2.7499342337250710e-02 -2.4796363711357117e-01 -6.5804970264434814e-01 -5.5572336912155151e-01 -2.0122545957565308e-01 -3.8985198736190796e-01 1.7257952690124512e-01 3.2182931900024414e-01 1.8391676247119904e-01 -5.9333974123001099e-01 3.8098442554473877e-01 3.4327638149261475e-01 -4.6187785267829895e-01 -4.3003752827644348e-01 2.9001554846763611e-01 -4.4813019037246704e-01 -1.1566642522811890e+00 -5.6068360805511475e-01 1.0361400991678238e-01 1.5801975727081299e+00 8.9999129995703697e-03 -3.9461022615432739e-01 -1.2731298804283142e-01 1.1339678429067135e-02 -1.6419754922389984e-01 7.3482960462570190e-02 7.7984333038330078e-02 -1.1964751034975052e-01 4.0858641266822815e-01 2.6075980067253113e-01 -1.3475432991981506e-01 1.5213030576705933e-01 -1.6198918456211686e-03 9.8360463976860046e-02 -4.8252856731414795e-01 4.4000345468521118e-01 -8.5689522325992584e-02 8.7176144123077393e-02 1.3638217747211456e-01 -6.3042335212230682e-02 -1.5843158960342407e+00 -1.4605900645256042e-01 4.0179696679115295e-01 -5.7875853776931763e-01 -4.0185652673244476e-02 7.5816327333450317e-01 3.6640363931655884e-01 -3.7068328261375427e-01 -1.5099811553955078e-01 1.5312043949961662e-02 1.5957789123058319e-01 -1.0752047598361969e-01 -9.6622502803802490e-01 5.4356545209884644e-01 9.7222395241260529e-02 3.2856816053390503e-01 -4.5991495251655579e-02 -2.2963929921388626e-02 3.3683973550796509e-01 -1.5140169858932495e-01 -2.8047165274620056e-01 4.1481527686119080e-01 -1.1140033602714539e-02 -2.0535141229629517e-01 -9.4336971640586853e-02 -8.7432257831096649e-02 -3.1994506716728210e-01 -7.1619562804698944e-02 2.3201677948236465e-02 -3.1373661756515503e-01 7.4991369247436523e-01 2.5766424834728241e-02 -4.7181361913681030e-01 7.8377348184585571e-01 2.0440512895584106e-01 -1.4844644069671631e+00 -3.0159175395965576e-01 1.3530586659908295e-01 1.6754390299320221e-01 1.2717001438140869e+00 -4.2814206331968307e-02 9.1165918111801147e-01 1.2912799417972565e-01 7.6449865102767944e-01 -7.1976584196090698e-01 -3.0697855353355408e-01 -1.4027866721153259e-01 4.5687603950500488e-01 -1.8613325059413910e-01 8.5357174277305603e-02 -3.6806640028953552e-01 5.7867938280105591e-01 -1.3710131868720055e-02 3.6817985773086548e-01 -7.9535442590713501e-01 -2.8905494213104248e+00 2.6706273555755615e+00 -4.6231952309608459e-01 1.9085496664047241e-01 -2.8661432862281799e-01 8.3897823095321655e-01 5.8723562955856323e-01 -2.0225733518600464e-01 -2.6507392525672913e-01 -6.3839152455329895e-02 7.2395199537277222e-01 1.2729960680007935e+00 1.1004270315170288e+00 7.6827451586723328e-02 -5.2929062396287918e-02 1.5033476054668427e-01 -9.0769600868225098e-01 3.6290898919105530e-01 -3.3076822757720947e-02 1.3565672934055328e-01 -6.2282264232635498e-01 -3.7518907338380814e-03 -5.6401145458221436e-01 -1.3059711456298828e+00 7.8498005867004395e-02 -9.8352722823619843e-02 -4.2528519034385681e-01 -2.4448804557323456e-01 -2.7062878012657166e-02 1.0083096027374268e+00 -8.0790531635284424e-01 -1.2189569473266602e+00 1.0127881765365601e+00 1.4866312965750694e-02 1.4078565835952759e+00 4.3751262128353119e-02 -1.1376422643661499e-01 1.9343595951795578e-02 -3.0585339665412903e-01 6.8168744444847107e-02 -1.1092855036258698e-01 -1.6022893786430359e-01 -2.7040854096412659e-01 2.7815899252891541e-01 -4.9618460237979889e-02 5.1605105400085449e-03 -6.8522080779075623e-02 3.1077614426612854e-01 -1.6742554306983948e-01 -1.8778795003890991e-01 -1.8140552937984467e-01 -8.6719095706939697e-03 1.7748726904392242e-01 -4.1010090708732605e-01 -8.1957049667835236e-02 2.6906004548072815e-01 3.1042867898941040e-01 -7.1666948497295380e-03 -4.0975084900856018e-01 -2.9614160060882568e+00 5.7836141586303711e+00 1.9263231754302979e+00 -1.1490612030029297e+00 -1.3141308724880219e-01 1.7045848071575165e-01 -9.5928728580474854e-01 -2.3557312786579132e-02 5.9829485416412354e-01 -3.2126661390066147e-02 1.7905717715620995e-02 1.9429911375045776e+00 -3.6493945121765137e-01 -3.0067685246467590e-01 2.0491909235715866e-02 1.6630550846457481e-02 -5.7142406702041626e-02 1.3069023191928864e-01 -1.4042092859745026e-01 5.4132428020238876e-02 -1.6736121475696564e-01 1.1162088811397552e-01 -7.8407842665910721e-03 3.2054567337036133e-01 9.0403711795806885e-01 -1.0289795696735382e-01 -7.4644990265369415e-02 -6.3430750370025635e-01 -2.4222587049007416e-01 -6.5732076764106750e-02 1.6469143331050873e-01 5.8450318872928619e-02 2.1710063517093658e-01 -4.2604899406433105e-01 3.4227035939693451e-02 2.0337216556072235e-01 -8.9173562824726105e-02 -3.9194256067276001e-02 -3.8771849870681763e-01 8.2609869539737701e-02 4.4642649590969086e-02 1.0690266499295831e-03 -1.4828778803348541e-01 8.0931246280670166e-02 4.8910204321146011e-02 -2.9517337679862976e-01 -8.0883475020527840e-03 5.3491276502609253e-01 9.5008969306945801e-01 -1.2610639631748199e-01 -8.8680490851402283e-02 6.8261628039181232e-03 -5.4251633584499359e-02 2.9783021658658981e-02 5.4233338683843613e-02 -3.1148632988333702e-02 -6.9541299343109131e-01 1.0082224011421204e-01 5.5973224341869354e-02 -7.4109297990798950e-01 5.3665477037429810e-01 -2.6581144332885742e-01 -2.4963007867336273e-01 2.2823484241962433e-01 -1.1153673380613327e-01 8.6554884910583496e-02 8.5656428337097168e-01 -9.3046367168426514e-02 -1.3756957650184631e-01 -5.7674407958984375e-02 1.7391467466950417e-02 -6.0541158914566040e-01 1.0088501125574112e-01 1.4262118935585022e-01 -2.2401121258735657e-01 -3.3804741501808167e-01 8.9652732014656067e-02 1.8803894519805908e-01 1.0427713394165039e-01 3.3207535743713379e-02 -3.3753734081983566e-02 -1.8464702367782593e-01 -1.4278164133429527e-02 4.2266348004341125e-01 3.0255341529846191e-01 -2.4784490466117859e-01 -3.2645553350448608e-01 -4.2436996102333069e-01 -1.5428715944290161e-01 4.4687822461128235e-01 -1.6601167619228363e-01 7.1087833493947983e-03 -7.3713950812816620e-02 4.3036852031946182e-02 3.8359670434147120e-03 -9.1523952782154083e-02 6.7359417676925659e-01 1.4067636430263519e-01 3.4741786122322083e-01 -8.5733926296234131e-01 4.2758356779813766e-02 -2.5283706188201904e-01 1.1896138191223145e+00 1.1550841480493546e-01 -2.9533836245536804e-01 1.9101804494857788e-01 -7.1160434745252132e-03 3.2909110188484192e-01 1.7680265009403229e-02 -2.2454468905925751e-01 -1.9266162812709808e-01 4.5435678958892822e-01 -5.5731553584337234e-03 -8.7867170572280884e-02 -1.3348491489887238e-01 1.0643284767866135e-01 2.0632086694240570e-01 -6.8475604057312012e-01 -2.4513103067874908e-02 -4.2096365243196487e-02 2.2764496505260468e-02 5.4818093776702881e-02 1.3992820680141449e-01 -2.0838482305407524e-02 2.5608083605766296e-01 3.5576269030570984e-01 -1.2098934501409531e-01 8.8344752788543701e-02 -2.7632588148117065e-01 -4.5502358675003052e-01 1.8373999744653702e-02 2.9698598384857178e-01 -2.6106494665145874e-01 1.9880023598670959e-01 -1.5749731659889221e-01 -1.9481654465198517e-01 1.1212811619043350e-01 7.5878649950027466e-02 -1.7650853842496872e-02 -2.9228661209344864e-02 1.9650407135486603e-01 1.4922624826431274e-01 -1.4707679860293865e-02 1.4767298707738519e-03 8.2618921995162964e-01 2.1872050762176514e+00 -1.1553972959518433e+00 8.4732109308242798e-01 4.2610511183738708e-01 -6.5840548276901245e-01 -5.3127247095108032e-01 -2.4955698847770691e-01 4.3315109610557556e-01 -7.8683841228485107e-01 -1.2461849302053452e-01 -1.3304369449615479e+00 -1.0498683452606201e+00 7.6447480916976929e-01 -6.9133853912353516e-01 6.5055944025516510e-02 -7.5194287300109863e-01 8.5766446590423584e-01 9.2946040630340576e-01 -8.9778172969818115e-01 -2.0542095601558685e-01 3.3890324831008911e-01 -2.3426274955272675e-01 2.4185229837894440e-01 -4.8002615571022034e-01 -4.7877881675958633e-02 -2.6091482490301132e-02 -3.6356547474861145e-01 -3.0545540153980255e-02 5.2406389266252518e-02 2.2512637078762054e-01 -1.3464200496673584e-01 4.5091781765222549e-02 4.1118445992469788e-01 -2.6366993784904480e-02 2.8647610545158386e-01 -1.2283055484294891e-01 1.0284957289695740e-01 5.7692265510559082e-01 -4.9623645842075348e-02 -4.4652149081230164e-03 -1.8074242770671844e-01 1.9489304721355438e-01 -1.7757619917392731e-01 -4.4320646673440933e-02 -4.6643322706222534e-01 8.1385001540184021e-03 1.7984174191951752e-02 4.2801513671875000e+00 -2.9537203311920166e+00 1.8071172237396240e+00 -8.1290650367736816e-01 3.1827315688133240e-01 -6.5592539310455322e-01 8.6491268873214722e-01 4.1360044479370117e-01 -3.0564823746681213e-01 -1.3550416231155396e+00 7.8370636329054832e-03 1.6672797203063965e+00 -3.0503806471824646e-01 -9.0973109006881714e-02 2.7155274152755737e-01 1.9421187043190002e-01 -1.2359885871410370e-01 1.7190741002559662e-01 1.0720715671777725e-01 -4.2799651622772217e-02 3.3706448972225189e-02 -5.0525623559951782e-01 -2.1867709234356880e-02 3.9566060900688171e-01 4.8369455337524414e-01 2.3304651677608490e-01 3.5440605878829956e-01 -2.8620660305023193e-01 -5.4563019424676895e-02 -1.3583199679851532e-01 1.0406777262687683e-01 -8.2681573927402496e-02 1.7299711704254150e-01 -2.3990817368030548e-01 7.5690872035920620e-03 -2.1886956691741943e-01 -3.5383692383766174e-01 -3.5232498645782471e+00 6.0870647430419922e-01 -3.9534747600555420e-01 4.6673040837049484e-02 7.8692597150802612e-01 -4.6118527650833130e-01 -2.0628157258033752e-01 -3.4961694478988647e-01 2.2819831371307373e+00 1.0904069989919662e-01 1.7201026678085327e+00 -4.5776486396789551e-02 -1.3451561331748962e-01 -5.6386660784482956e-02 -1.3935871422290802e-01 -2.6057844981551170e-02 2.3007090389728546e-01 -3.7180474400520325e-01 -2.1206159889698029e-01 3.8486514240503311e-02 8.1063382327556610e-02 -3.0809887684881687e-03 -3.0845987796783447e-01 1.0294893383979797e-01 4.8391941189765930e-01 -3.7504032254219055e-01 1.2933613359928131e-01 -1.5907858312129974e-01 -2.3102384805679321e-01 9.0815700590610504e-02 5.9259958565235138e-02 -1.7541675269603729e-01 -3.3160832524299622e-01 2.0033562555909157e-02 1.9472630694508553e-02 8.4963977336883545e-01 2.8995405882596970e-02 -3.5164290666580200e-01 -3.8413730263710022e-01 1.5406650304794312e-01 -3.2450845837593079e-01 -3.0158221721649170e-01 1.1115870624780655e-01 -9.0936645865440369e-02 1.1267165094614029e-01 -8.6237005889415741e-03 1.1335281282663345e-01 -3.8390943408012390e-01 4.4596768915653229e-02 2.7074775099754333e-01 -9.4637453556060791e-02 -6.0749953985214233e-01 4.6271374821662903e-01 -1.8563362956047058e-01 6.3270308077335358e-02 -6.2022980302572250e-02 -3.0247789621353149e-01 1.0361158102750778e-01 1.8443687260150909e-01 -1.2716840207576752e-01 -4.0235951542854309e-02 -2.9862788319587708e-01 1.3464204967021942e-01 -3.3546149730682373e-01 -1.0639306902885437e-01 8.6935624480247498e-02 -1.6391627490520477e-01 2.5686033070087433e-02 6.0669738054275513e-01 3.4934163093566895e-02 -3.4085562825202942e-01 -1.6711439192295074e-01 2.6505028828978539e-02 2.7923481538891792e-02 -1.5855230391025543e-01 1.0840517468750477e-02 -7.1492522954940796e-02 -6.4977824687957764e-02 1.1886540800333023e-01 -1.5361571311950684e-01 5.1893241703510284e-02 -9.5651485025882721e-03 3.1249496340751648e-01 2.4544599056243896e+00 6.3654589653015137e+00 -1.6973123550415039e+00 -5.4792273044586182e-01 2.9085063934326172e-01 -4.8754858970642090e-01 -1.1788365244865417e-01 -6.4540199935436249e-02 3.0181908607482910e-01 -1.0252567529678345e+00 -3.1051370315253735e-03 3.7908115386962891e+00 -4.5193350315093994e-01 2.7475327253341675e-01 8.6301602423191071e-02 4.0696600079536438e-01 -1.6067954897880554e-01 -2.3674990236759186e-01 5.6172150373458862e-01 8.1313513219356537e-02 -3.5560724139213562e-01 -1.3979662954807281e-01 -4.1312199085950851e-02 1.7122891545295715e-01 1.4629602432250977e+01 -5.5655729770660400e-01 2.0334563255310059e+00 -2.2682988643646240e+00 3.8650733232498169e-01 -6.3576263189315796e-01 1.5805130004882812e+00 -4.4953320175409317e-02 -1.0146043449640274e-01 -1.6523492336273193e-01 -1.5360767429228872e-04 1.5191019773483276e+00 -1.4331573247909546e+00 3.1418535113334656e-01 2.7939162254333496e+00 2.5080566406250000e+00 5.8645772933959961e-01 -2.3630034923553467e+00 -3.0859923362731934e-01 -3.2238709926605225e-01 -1.0608139038085938e+00 -1.8117887973785400e+00 2.1422132849693298e-02 8.0346703529357910e-01 2.9747021198272705e+00 2.7452098205685616e-02 -3.2109622955322266e+00 -4.5039817690849304e-01 3.6034412682056427e-02 3.1676566600799561e-01 -3.4071164131164551e+00 4.9554365873336792e-01 -6.7886650562286377e-02 -1.3868507742881775e-01 -1.1835497803986073e-02 -2.2831859588623047e+00 2.5465238094329834e-01 4.6862429380416870e-01 -3.8009890913963318e-01 -5.3744161128997803e-01 1.9833496212959290e-01 9.5155863091349602e-03 -1.3631100952625275e-01 1.6108098626136780e-01 1.6925878822803497e-02 3.1483909487724304e-01 -6.4503096044063568e-02 1.6736643016338348e-01 1.0979107022285461e-01 4.3030622601509094e-01 1.4522948861122131e-01 -4.2087391018867493e-01 -9.1132313013076782e-02 3.0410626530647278e-01 -1.1125381290912628e-01 7.9774245619773865e-02 -4.0061315894126892e-01 1.7374445497989655e-01 -2.6110906619578600e-03 2.6074287295341492e-01 9.9558241665363312e-02 -1.5248750150203705e-01 -1.7740370705723763e-02 6.6983997821807861e-02 1.7985513806343079e-01 -3.4037676453590393e-01 -2.7848982810974121e-01 2.7096202969551086e-01 -9.1871745884418488e-02 2.6845830678939819e-01 -1.1095257475972176e-02 4.6941041946411133e-01 3.6820092797279358e-01 4.4153314828872681e-01 9.7457513213157654e-02 -3.3075809478759766e-01 -7.0854276418685913e-04 4.6354192495346069e-01 -3.7028545141220093e-01 -7.9595567658543587e-03 3.8142941892147064e-02 -1.4996160566806793e-01 -6.8808761425316334e-03 -1.6364988684654236e-01 -3.8275346159934998e-01 -8.7432718276977539e-01 8.8811159133911133e-01 5.5045825242996216e-01 9.8680928349494934e-02 -3.8939723372459412e-01 1.4943465590476990e-01 -4.4522736221551895e-02 1.5964783728122711e-01 -7.0524352788925171e-01 1.0473052039742470e-02 -1.5053519979119301e-02 2.6356106996536255e-01 6.5843095071613789e-03 2.8629136085510254e-01 -4.2455112934112549e-01 6.4489990472793579e-02 2.1992981433868408e-01 -5.4937630891799927e-01 1.9286763668060303e-01 1.8600130081176758e-01 2.1602636575698853e-01 -9.1393701732158661e-02 -3.0254930257797241e-01 -5.7308244705200195e+00 -4.8435883522033691e+00 2.6514894962310791e+00 1.3494857549667358e+00 -2.3132908344268799e-01 4.1010841727256775e-01 1.1318953335285187e-01 2.8497537970542908e-01 -8.7796765565872192e-01 1.5157172679901123e+00 2.0615108311176300e-02 -3.7130522727966309e+00 -2.3891666531562805e-01 -5.8589941263198853e-01 -4.0243335068225861e-02 4.7451680898666382e-01 -2.1035148203372955e-01 4.5327982306480408e-01 6.3277341425418854e-02 5.9790711849927902e-02 1.5114665031433105e-01 -7.4644988775253296e-01 -9.3352403491735458e-03 3.3557397127151489e-01 1.8342091143131256e-01 -3.0025818943977356e-01 -2.4809835851192474e-01 -2.1341089904308319e-01 3.4961366653442383e-01 -2.6192203164100647e-01 2.2061914205551147e-01 2.7684608940035105e-03 -1.6892205178737640e-01 5.2475827932357788e-01 -1.8127614632248878e-02 2.6502412557601929e-01 9.7214859724044800e-01 -8.9597038924694061e-02 -3.1487146019935608e-01 1.9626618921756744e-01 4.2419704794883728e-01 -1.0064884424209595e+00 -5.8927804231643677e-01 8.4256118535995483e-01 -7.3350036144256592e-01 4.0019327402114868e-01 -1.1015837639570236e-01 -1.4160998165607452e-01 2.2984236478805542e-01 4.1592285037040710e-01 -3.2109162211418152e-01 -3.1697884202003479e-01 -3.1593051552772522e-01 6.0967320203781128e-01 6.7665082216262817e-01 -5.1622551679611206e-01 1.9177131354808807e-01 -1.2399953603744507e-01 -6.2179709784686565e-03 -1.1757071018218994e+00 -1.1864539235830307e-01 1.4694854617118835e-01 2.3909863829612732e-01 -2.9104655981063843e-01 -1.9276320934295654e-01 1.3223725557327271e-01 -1.6657297313213348e-01 -1.1046902835369110e-01 -1.0685352981090546e-01 5.7951545715332031e-01 -1.2298532761633396e-02 -3.0105131864547729e-01 8.0784072875976562e+00 -2.5274193286895752e+00 2.4054298400878906e+00 -1.5725359916687012e+00 2.7968007326126099e-01 -4.8553273081779480e-01 1.0883272886276245e+00 3.5617623478174210e-02 1.2800698168575764e-02 -8.7033921480178833e-01 -1.9598376820795238e-04 3.9214458465576172e+00 -1.0544510930776596e-01 3.0773338675498962e-01 -1.0476712882518768e-01 2.2668994963169098e-01 -1.0417078621685505e-02 -2.6295703649520874e-01 -1.2854278087615967e-01 5.9349179267883301e-02 -3.3131071925163269e-01 -6.4525619149208069e-02 -5.1749274134635925e-03 1.5136279165744781e-01 -8.6450360715389252e-02 -6.3407436013221741e-02 2.1471428871154785e-01 -1.0923648625612259e-01 -1.2383161485195160e-01 2.9527291655540466e-01 9.3970656394958496e-02 -1.3774186372756958e-01 4.6584468334913254e-02 1.4711391925811768e-01 2.0452763885259628e-02 -4.4022506475448608e-01 5.5650812387466431e-01 5.4153084754943848e-01 1.5086486935615540e-01 -2.9463243484497070e-01 1.6290206909179688e+00 -1.5002526342868805e-01 -5.0917679071426392e-01 2.5972872972488403e-01 -2.3156575858592987e-01 -1.1130915582180023e-01 1.4186321198940277e-01 4.0345847606658936e-01 6.6148614883422852e-01 2.9481935501098633e-01 1.3225266337394714e-01 -4.4503444433212280e-01 -1.6253527998924255e-01 9.9081993103027344e-02 -2.6726773381233215e-01 1.1937861889600754e-01 -1.5761767327785492e-01 -1.0994951426982880e-01 -2.2092883009463549e-03 -1.1794414371252060e-01 5.8189574629068375e-02 1.9659250974655151e-01 1.0382691025733948e-01 -1.9396916031837463e-01 -9.2865198850631714e-02 -4.5639430172741413e-03 8.0541774630546570e-02 -9.4849720597267151e-02 -7.8951299190521240e-02 2.5795536115765572e-02 2.9720833990722895e-03 5.7492461055517197e-02 -1.1769774556159973e-01 -1.2968301773071289e-01 2.4587263166904449e-01 -2.7830865979194641e-01 -8.9225836098194122e-02 -1.2058153748512268e-02 -3.4013962745666504e-01 -1.1599861085414886e-01 -3.0355545878410339e-01 6.9619846343994141e-01 -1.4214628376066685e-02 1.5336035750806332e-02 6.8276241421699524e-02 -1.9559000432491302e-01 3.4389522671699524e-01 3.6684018373489380e-01 1.5451067686080933e-01 -3.1384584307670593e-01 -4.1125261783599854e-01 3.4637364745140076e-01 -1.7229301854968071e-02 1.6936403512954712e-01 1.1679443530738354e-02 3.3483275771141052e-01 -3.2476475238800049e+00 5.2299642562866211e-01 -2.1901765465736389e-01 6.4575099945068359e-01 2.6842730119824409e-02 6.6635340452194214e-01 -1.1592785120010376e+00 1.3612823188304901e-01 -5.7572287321090698e-01 -2.2066660225391388e-01 2.4058882147073746e-02 -2.5802534818649292e-01 -2.1912455558776855e-01 -1.0310193151235580e-01 -1.3180491328239441e-01 -1.1984466761350632e-01 -1.6729216277599335e-01 3.1955215334892273e-01 1.0627766605466604e-03 5.3545322269201279e-02 -2.3033390939235687e-01 3.2507842779159546e-01 -1.0390873067080975e-03 1.6075912117958069e-01 -3.7818694114685059e-01 1.4857397973537445e-01 1.4150172472000122e-01 3.4375092387199402e-01 1.1582563817501068e-01 -1.2594006955623627e-01 4.6965813636779785e-01 1.4484640955924988e-01 -2.3674099147319794e-01 -7.0013189315795898e-01 3.5727769136428833e-02 3.2606497406959534e-01 -4.8864582180976868e-01 -1.2998014688491821e-01 2.0512118935585022e-01 6.1178165674209595e-01 8.1229239702224731e-02 -2.1350841224193573e-01 -3.2904320955276489e-01 3.7288373708724976e-01 -3.3184427022933960e-01 -7.2581045329570770e-02 -3.3004097640514374e-02 5.7451009750366211e-01 3.1475976109504700e-01 -1.8497680127620697e-01 5.1041072607040405e-01 -7.5406573712825775e-02 2.2682180628180504e-02 -1.2464582175016403e-01 -2.6940771937370300e-01 6.4181804656982422e-02 -4.5771937817335129e-02 -1.3326570391654968e-01 9.0904027456417680e-04 -1.2379050254821777e-02 -1.7351670265197754e+00 -1.0177531242370605e+00 7.2824215888977051e-01 7.5034928321838379e-01 -5.0354942679405212e-02 2.5683504343032837e-01 -4.3122002482414246e-01 2.8599211946129799e-03 -1.8197289109230042e-01 3.3033752441406250e-01 2.3815749213099480e-02 3.2736845314502716e-02 -9.5755821093916893e-03 1.7789095640182495e-01 5.2845716476440430e-01 -2.3926115036010742e-01 1.6347590088844299e-01 -3.1475594639778137e-01 4.1278403997421265e-01 -1.4664936065673828e-01 2.2860027849674225e-01 -3.8498130440711975e-01 1.6282282012980431e-04 -6.3329292461276054e-03 -1.6605070233345032e-01 -3.4130185842514038e-01 1.9507190585136414e-01 2.1846513450145721e-01 7.4223406612873077e-02 -2.7258753776550293e-01 1.7711123824119568e-01 -1.2098915874958038e-01 -3.4993957728147507e-02 -3.1758034229278564e-01 1.8043490126729012e-02 3.8952073454856873e-01 1.1623407602310181e+00 -1.8225358426570892e-01 -2.2862915992736816e+00 8.0670881271362305e-01 -1.2426267564296722e-01 7.1039056777954102e-01 -3.8527995347976685e-01 -1.1853840947151184e-01 -2.8344556689262390e-01 1.2725404500961304e+00 5.5114016868174076e-03 -1.4072809219360352e+01 -1.5754339098930359e-01 2.7360120415687561e-01 3.6305454373359680e-01 2.3081484436988831e-01 -9.2580102384090424e-02 -1.0463725030422211e-01 3.3048492670059204e-01 -1.9387672841548920e-01 2.0739795267581940e-01 -2.8335869312286377e-01 2.4905225262045860e-02 -3.0120080709457397e-01 2.9576895758509636e-02 3.8919609040021896e-02 -3.0619272589683533e-01 2.4069425463676453e-01 -4.4288579374551773e-02 1.2799005210399628e-01 -5.9172436594963074e-02 4.7969497740268707e-02 -2.2045794129371643e-01 7.4984259903430939e-02 1.4547086320817471e-03 -2.4211034178733826e-01 3.4232631325721741e-01 -4.1076307296752930e+00 5.3253901004791260e-01 4.7225129604339600e-01 4.5633986592292786e-01 -1.8772442340850830e+00 8.7468850612640381e-01 -1.3307626545429230e-01 8.9864408969879150e-01 2.6501905918121338e+00 7.7591061592102051e-02 3.4818896651268005e-01 9.8661166429519653e-01 -2.8857922554016113e-01 8.8747489452362061e-01 -1.7198157310485840e+00 -6.2319803237915039e-01 1.2506252527236938e+00 7.6563823223114014e-01 3.7447479367256165e-01 -9.5118564367294312e-01 -1.4976359605789185e+00 1.9669311121106148e-02 -1.6143370866775513e+00 -6.1186677217483521e-01 2.0837500691413879e-01 4.9320837855339050e-01 -2.1076413989067078e-01 -1.6015110909938812e-01 3.2477203011512756e-01 -7.8656738996505737e-01 -3.4465618431568146e-02 6.4252102375030518e-01 -3.6820366978645325e-01 -5.5007640272378922e-02 8.7225311994552612e-01 -1.6400168836116791e-01 -7.0809513330459595e-02 3.1735047698020935e-01 1.9973985850811005e-01 -1.6695491969585419e-01 5.7601977139711380e-02 1.9582532346248627e-01 2.3633314669132233e-01 4.5868489891290665e-02 1.0863211005926132e-01 7.7415263513103127e-04 -1.6143524646759033e-01 1.1026140451431274e+00 -1.0774614810943604e+00 -1.2398244142532349e+00 -7.4148792028427124e-01 -1.6180536150932312e-01 1.2180389165878296e+00 -5.3266417980194092e-01 -1.3003590106964111e+00 1.1178221702575684e+00 -2.8525394201278687e-01 -2.8031172696501017e-03 -2.0127763748168945e+00 -2.4610006809234619e-01 3.6222144961357117e-01 -1.5925060212612152e-01 2.9871872067451477e-01 1.4185951650142670e-01 -3.8839748501777649e-01 1.4828875660896301e-01 1.0682273656129837e-01 -3.8736185431480408e-01 2.2655978798866272e-01 8.0881323665380478e-03 3.1513489782810211e-02 -3.8095623254776001e-01 6.4003191888332367e-02 3.0926445499062538e-02 2.1790643036365509e-01 1.1740036308765411e-01 -1.4547406136989594e-01 -2.1075730025768280e-01 9.1771006584167480e-02 -1.8442448973655701e-01 -1.2466438859701157e-01 -3.5118613392114639e-02 3.3460301160812378e-01 8.0791436135768890e-02 2.3697572946548462e-01 1.7774327099323273e-01 1.8983571231365204e-01 4.2061593383550644e-02 -2.0170772448182106e-02 -3.2036727666854858e-01 -6.1495073139667511e-02 5.7484279386699200e-03 -4.4165721535682678e-01 -4.9093566834926605e-02 2.7777501940727234e-01 -5.9984511137008667e-01 5.4260671138763428e-01 2.0432123541831970e-01 1.5345890820026398e-01 1.4453822374343872e-01 1.6885951161384583e-02 -2.5184631347656250e-01 -1.2529093027114868e-01 -2.8706064447760582e-02 1.8238668143749237e-01 1.7391555011272430e-02 -1.5849758684635162e-01 -7.1561878919601440e-01 5.5084514617919922e-01 6.5213441848754883e-02 3.5851252079010010e-01 1.0022432543337345e-02 -9.0253464877605438e-02 5.0638121366500854e-01 -1.0686640441417694e-01 -1.6662684082984924e-01 -3.2759940624237061e-01 7.8431731089949608e-03 3.6198949813842773e-01 1.4820213615894318e-01 -1.5824683010578156e-01 -8.2292176783084869e-02 -2.9248720407485962e-01 -1.3158112764358521e-01 1.3329358398914337e-01 -2.0908826589584351e-01 -1.5253533422946930e-01 1.1126554757356644e-01 1.6650855541229248e-02 -6.5674041397869587e-03 -1.6821768134832382e-02 5.3904813528060913e-01 6.1755847930908203e-01 -3.0692309141159058e-02 -2.0743668079376221e-01 1.9917055964469910e-01 -3.8513264060020447e-01 -9.6841585636138916e-01 -6.6222056746482849e-02 3.6436492204666138e-01 -8.9258670806884766e-02 -3.5528939962387085e-01 -2.8504920005798340e-01 1.8761976063251495e-01 1.4723616838455200e-01 1.7752915620803833e-01 -1.0362051427364349e-01 -2.1332743763923645e-01 -6.1029465869069099e-03 -1.3635203242301941e-01 -1.2663950026035309e-01 1.9455365836620331e-01 1.9211567938327789e-01 1.1067807674407959e-02 -4.2374849319458008e-01 1.6772010326385498e+00 -3.9878129959106445e-01 2.3348233103752136e-01 -3.6095213890075684e-01 -2.6000991463661194e-01 -1.5875278040766716e-02 3.5592070221900940e-01 -5.4342201910912991e-03 1.3402435183525085e-01 1.5682090818881989e-01 1.8827491998672485e-01 6.7660130560398102e-02 -3.7814110517501831e-01 -5.6892299652099609e-01 3.7911576032638550e-01 5.5949336290359497e-01 6.5330840647220612e-02 -5.9767490625381470e-01 6.3398158550262451e-01 -7.4762865900993347e-02 3.5043621063232422e-01 3.7891271058470011e-03 5.0568960607051849e-02 -4.9903100728988647e-01 7.0650197565555573e-02 -3.1106024980545044e-02 -1.6000735759735107e-01 3.2594007253646851e-01 2.8284820728003979e-03 3.0273731797933578e-02 -2.0948664844036102e-01 2.0381018519401550e-02 -1.0267758369445801e-01 5.3146854043006897e-02 -2.8705172007903457e-04 -1.3376191258430481e-01 -1.1851841211318970e+00 -3.7819384597241879e-03 1.1401724815368652e+00 -1.1905122995376587e+00 -2.9392635822296143e-01 2.0566284656524658e+00 4.1590565443038940e-01 2.3464095592498779e-01 -1.3025289773941040e+00 -5.1764839887619019e-01 4.2051773518323898e-02 -3.4469258785247803e+00 -1.1316446214914322e-01 1.9182894378900528e-02 -3.1924298405647278e-01 2.9246035218238831e-01 1.2722864747047424e-01 1.1547641456127167e-01 -1.2431718409061432e-01 -1.3863244652748108e-01 2.5857782363891602e-01 1.1435601860284805e-01 8.6689705494791269e-04 -3.3514750003814697e-01 1.4040820300579071e-01 -5.4337763786315918e-01 -3.0304941534996033e-01 -6.0233312845230103e-01 -3.6696946620941162e-01 5.4553037881851196e-01 -3.6084812879562378e-01 -1.0936927795410156e-01 1.4577914960682392e-02 1.0276763439178467e+00 -2.9231835156679153e-02 1.8757988512516022e-01 3.4116551280021667e-01 5.6878834962844849e-01 -4.8697039484977722e-02 1.4426036179065704e-01 -6.4490139484405518e-02 -1.2509235739707947e-01 -1.4956699311733246e-01 2.5992985814809799e-02 5.9431150555610657e-02 -7.0790730416774750e-02 -1.7649063374847174e-03 -6.2611669301986694e-01 7.1487769484519958e-02 -1.9926473498344421e-01 -1.7625401914119720e-01 -2.5934985280036926e-01 -2.6092565059661865e-01 3.7932327389717102e-01 4.2026519775390625e-01 -1.6224743425846100e-01 -1.4681088924407959e-01 -3.0663976073265076e-01 1.2702350504696369e-02 3.1489670276641846e-01 2.7555072307586670e-01 1.8880853429436684e-02 -4.8302066326141357e-01 -8.0507986247539520e-02 -2.9797011613845825e-01 3.9311042428016663e-01 -2.0194979012012482e-01 1.0170589387416840e-01 -1.7986111342906952e-02 8.5727944970130920e-02 7.2171976789832115e-03 2.7943363785743713e-01 4.3947669863700867e-01 3.3997130393981934e-01 3.5786911845207214e-01 -3.3796417713165283e-01 4.0917992591857910e-02 -2.9792001843452454e-01 -3.1363108754158020e-01 1.0133565403521061e-02 1.5409062616527081e-02 9.0412594377994537e-02 -9.8233092576265335e-03 -3.4203436970710754e-01 -3.6788067221641541e-01 -3.7614282965660095e-01 7.2906740009784698e-02 4.9689435400068760e-03 2.3945403099060059e-01 9.0371780097484589e-02 4.7697808593511581e-02 7.4171093292534351e-03 4.5415505766868591e-02 8.6992636322975159e-02 -3.9079301059246063e-03 5.1517462730407715e-01 2.6815259456634521e-01 3.5602822899818420e-03 8.2324057817459106e-02 2.1390344202518463e-01 1.8699948489665985e-01 -9.9216558039188385e-02 7.7600225806236267e-02 1.9558030366897583e-01 -2.6545313000679016e-01 -1.3226196169853210e-01 1.5500520355999470e-02 -3.3087298274040222e-01 -1.1302468776702881e+00 2.5145581364631653e-01 2.3383021354675293e-01 3.4567338228225708e-01 -1.2019384652376175e-01 3.2341533899307251e-01 2.2328291833400726e-01 -7.1261471509933472e-01 5.4152333736419678e-01 -6.8620342016220093e-01 2.0594685338437557e-03 3.6462396383285522e-01 6.3850365579128265e-02 -2.3040606081485748e-01 -2.0140597224235535e-01 1.2029732018709183e-01 -1.0323556512594223e-01 1.7633280158042908e-01 1.0195183008909225e-01 8.9109636843204498e-02 6.5492056310176849e-02 -4.6225596219301224e-02 -2.1847386378794909e-03 1.8249522149562836e-01 -1.2459459900856018e-01 3.1245812773704529e-01 2.7291124686598778e-02 1.4603574573993683e-01 -2.6592266559600830e-01 -2.7285861968994141e-01 1.1233918368816376e-01 -2.0997677743434906e-01 -1.7190837860107422e-01 -1.6992396116256714e-01 -3.8245700299739838e-02 -1.2692569196224213e-01 -5.8730721473693848e-01 -6.9192156195640564e-02 2.2281204164028168e-01 2.4527165293693542e-01 -5.0502970814704895e-02 -6.1587207019329071e-02 1.3289266824722290e-01 -2.8572646901011467e-02 -2.7454268932342529e-01 -2.5200891494750977e-01 -7.6221162453293800e-04 5.4982501268386841e-01 -1.1582256555557251e+00 2.2407984733581543e-01 -3.0077016353607178e-01 -6.5299749374389648e-01 -2.1222577989101410e-01 -6.3437577337026596e-03 5.1331841945648193e-01 -1.0649492740631104e+00 -1.2450392246246338e+00 1.1408270597457886e+00 5.5698059499263763e-02 1.7697445154190063e+00 5.5794209241867065e-01 -3.0546600464731455e-03 2.5122314691543579e-01 -6.1730766296386719e-01 -1.3343837112188339e-02 1.8028593063354492e-01 -2.6181289553642273e-01 2.5404456257820129e-01 -1.0110800713300705e-01 1.8271036446094513e-01 -1.8701268360018730e-02 -1.5421612560749054e-01 2.7118807658553123e-02 -5.0689864158630371e-01 -2.5322711467742920e-01 -7.0759284496307373e-01 -1.3058955781161785e-02 1.0654629021883011e-01 -4.4682741165161133e-02 7.8090913593769073e-02 -1.4446038007736206e-01 1.5196663141250610e+00 4.5183710753917694e-03 6.6471874713897705e-01 -1.2352859601378441e-02 -1.6496162861585617e-02 1.8491236492991447e-02 -3.0285236239433289e-01 2.1734438836574554e-01 -1.2087716162204742e-01 2.8076659888029099e-02 9.3292698264122009e-02 5.6613791733980179e-02 -2.0603621006011963e-01 -2.2287121042609215e-02 4.1375887393951416e-01 1.0405470132827759e+00 1.8601127862930298e+00 -9.2623651027679443e-01 -7.9399801790714264e-02 -9.8622971773147583e-01 1.0336419343948364e+00 -1.7917826771736145e-01 3.5990929603576660e-01 -1.9496347010135651e-01 -1.0155566930770874e+00 5.6547660380601883e-02 -3.2232314348220825e-01 3.0231276154518127e-01 1.4722861349582672e-01 4.4278427958488464e-01 -3.4300893545150757e-01 4.2526479810476303e-02 2.2634421288967133e-01 -2.3882050812244415e-01 1.9394780695438385e-01 6.4914613962173462e-02 -3.3727064728736877e-01 6.0307819396257401e-02 -9.7193807363510132e-02 -6.6359281539916992e-01 -5.1461845636367798e-01 1.4261157810688019e-01 5.0125670433044434e-01 -1.0335098952054977e-01 5.8615040034055710e-02 6.6620147228240967e-01 -3.9678800851106644e-02 -4.2400473356246948e-01 -3.7444036453962326e-02 1.7424839735031128e-01 2.9482018947601318e-01 8.9531171321868896e-01 2.4247465133666992e+00 -1.5601029396057129e+00 9.4766813516616821e-01 1.6042293608188629e-01 -6.1360234022140503e-01 4.6072900295257568e-02 8.6114704608917236e-02 3.9245831966400146e-01 -1.0185868740081787e+00 -8.5660330951213837e-02 -1.5456551313400269e+00 4.6783858537673950e-01 -3.8206166028976440e-01 1.7719147726893425e-02 -1.9180817902088165e-01 -8.6237370967864990e-02 -3.1399333477020264e-01 3.8979589939117432e-01 2.6861113309860229e-01 1.4869361184537411e-03 8.3986543118953705e-02 5.9847567230463028e-02 4.7885286808013916e-01 -8.4438467025756836e-01 -5.7831454277038574e-01 1.8489296734333038e-01 7.1270304918289185e-01 -3.9135627448558807e-02 -3.8565170019865036e-02 6.4799827337265015e-01 -1.3777799904346466e-01 -4.5978775620460510e-01 -5.2436366677284241e-02 2.1643309295177460e-01 3.1704625487327576e-01 -1.1059672832489014e+00 2.8512150049209595e-02 3.0143135786056519e-01 4.7036102414131165e-01 -1.9866198301315308e-01 5.2437889575958252e-01 -5.0403815507888794e-01 2.3649919033050537e-01 4.7134274244308472e-01 4.5392683148384094e-01 2.6328582316637039e-02 7.7947741746902466e-01 3.3019298315048218e-01 -3.8271743059158325e-01 3.9092488586902618e-02 -4.7041487693786621e-01 -3.3081224560737610e-01 1.9403365254402161e-01 -2.4152393639087677e-01 2.2828872501850128e-01 1.0977494716644287e-01 -1.1511797457933426e-01 7.7475388534367085e-03 3.4435677528381348e-01 -1.2136902809143066e+00 -1.3676379621028900e-01 -4.7883418202400208e-01 -1.9846891164779663e+00 -1.0328533500432968e-01 8.5844969749450684e-01 1.5043854713439941e-01 -1.7476685345172882e-01 -6.2052911520004272e-01 3.0067241191864014e+00 -1.0581630282104015e-02 2.8636052608489990e+00 -2.2997891902923584e+00 -3.8612142205238342e-01 2.1576673984527588e+00 -7.8388345241546631e-01 -2.6336299255490303e-02 8.1414788961410522e-02 2.6175546646118164e+00 -1.7644000053405762e-01 -2.6871889829635620e-01 7.8504621982574463e-01 -3.5196563694626093e-03 2.4286167621612549e+00 -2.6594254374504089e-01 -7.4702575802803040e-02 2.1007442474365234e-01 -7.8291080892086029e-02 -2.4042533338069916e-01 6.8096466362476349e-02 -2.1545039117336273e-01 5.0710856914520264e-02 -7.2680212557315826e-02 -3.8575568795204163e-01 2.5119716301560402e-02 5.2487009763717651e-01 2.8868889808654785e-01 2.0783901214599609e-01 -4.1526487469673157e-01 1.1918200552463531e-01 2.0639418065547943e-01 -3.5950526595115662e-01 -9.1521888971328735e-02 -8.2287341356277466e-02 1.3184548914432526e-01 8.7780088186264038e-02 3.5719105508178473e-03 2.7267204597592354e-02 -3.5983648896217346e-01 -3.0018696561455727e-02 1.6454819124191999e-03 -3.0257070437073708e-02 -2.6500269770622253e-01 3.8034567236900330e-01 -1.9460986554622650e-01 6.0110617429018021e-02 1.5397153794765472e-01 2.2430626675486565e-02 4.2410494643263519e-05 4.4767713546752930e-01 1.9114730879664421e-02 2.4611215293407440e-01 -1.9629383459687233e-03 1.5171530842781067e-01 2.2768877446651459e-01 2.7429383993148804e-01 -3.0207386612892151e-01 2.3387102410197258e-03 -3.4712785482406616e-01 -5.0114445388317108e-02 5.6718558073043823e-02 -9.6042230725288391e-03 1.3088482618331909e-01 2.3833207786083221e-01 2.3687650263309479e-01 -2.0259778201580048e-01 -7.3277406394481659e-02 -6.1055369675159454e-02 -3.3254769444465637e-01 -2.0931194722652435e-01 1.8594956398010254e-01 -8.5640944540500641e-02 -1.3087259605526924e-02 2.3796060681343079e-01 -3.2805716991424561e-01 -1.3541964292526245e+00 1.3096946477890015e-01 -4.1116544604301453e-01 7.3844689130783081e-01 1.1086783409118652e+00 -2.7627193927764893e-01 -8.7595535442233086e-03 1.9286522269248962e-01 1.1917954683303833e+00 -4.9127068370580673e-02 1.1288849115371704e+00 -2.4217678606510162e-01 3.8927948474884033e-01 -3.2118391990661621e-01 -2.6830267906188965e-01 -5.5616166442632675e-02 5.2775815129280090e-02 -1.9278427585959435e-02 2.2301061451435089e-01 1.1980839073657990e-02 3.9548778533935547e-01 1.4664289541542530e-02 3.7389349937438965e-01 7.7195227146148682e-01 -2.6467603445053101e-01 -4.2293727397918701e-01 -6.8589977920055389e-02 1.8897993490099907e-02 -9.5170773565769196e-02 2.7560824155807495e-01 -7.5371563434600830e-03 -2.4564510583877563e-01 -4.5281328260898590e-02 1.3160211034119129e-02 -4.6997401118278503e-01 3.1636828184127808e-01 1.7259985208511353e-01 -2.5299999117851257e-01 -3.6260321736335754e-01 -5.3966581821441650e-01 4.1557735204696655e-01 -4.4932234287261963e-01 6.0140311717987061e-02 -2.4840214848518372e-01 -2.3952066898345947e-01 1.0857386887073517e-01 4.6814420819282532e-01 4.6957790851593018e-01 3.3625066280364990e-01 -1.7098659276962280e-01 -3.1257089972496033e-01 1.1475037038326263e-01 1.5706500411033630e-01 -6.0390233993530273e-01 2.5706944987177849e-02 -3.5628828406333923e-01 3.5590615868568420e-01 4.0139937773346901e-03 -3.1423889100551605e-02 4.6876481175422668e-01 -4.1848126053810120e-01 -2.4737051129341125e-01 -7.2168344259262085e-01 7.5253896415233612e-02 3.6973647773265839e-02 -1.5484707057476044e-01 3.1668166629970074e-03 -1.6915214061737061e-01 9.1050082445144653e-01 5.1059350371360779e-03 3.5827586054801941e-01 -2.6715269684791565e-01 3.2985568046569824e-01 -2.7402147650718689e-01 -2.1412447094917297e-01 2.5774687528610229e-01 -2.7150726318359375e-01 1.6475878655910492e-01 1.1511544138193130e-01 1.4989469945430756e-01 4.0093141794204712e-01 6.7839063704013824e-03 1.1889679729938507e-01 -1.5170462429523468e-01 -1.7165920138359070e-01 1.1658497154712677e-01 -2.3075607419013977e-01 3.7286651134490967e-01 3.2870045304298401e-01 2.3913836479187012e-01 2.3880280554294586e-01 1.3323226571083069e-01 -7.1362100541591644e-02 -7.0241421461105347e-02 2.8508859872817993e-01 -1.4821027517318726e+00 -8.8115751743316650e-02 7.7382892370223999e-01 2.0611886680126190e-01 -1.2831051349639893e+00 3.7084107398986816e+00 5.0564017146825790e-02 5.8610230684280396e-01 1.5434357523918152e-01 -1.5794386863708496e+00 6.3335515558719635e-02 -3.7246060371398926e-01 2.1538403630256653e-01 2.9042080044746399e-01 3.8929302245378494e-02 3.1598389148712158e-01 1.4573356509208679e-01 -3.9954581856727600e-01 1.4805524051189423e-01 -2.1936882287263870e-02 2.0356196165084839e-01 -3.1216156482696533e-01 -3.7178325001150370e-03 -1.5536127984523773e-01 -3.7855191230773926e+00 -3.5974149703979492e+00 1.5208973884582520e+00 5.7353383302688599e-01 5.0077345222234726e-03 2.9505586624145508e-01 -2.0643641054630280e-01 7.6329633593559265e-02 -5.2283521741628647e-02 2.0000007152557373e+00 1.6895183362066746e-03 -1.1680101156234741e+00 2.4036428332328796e-01 1.0367256402969360e-01 4.0838611125946045e-01 -3.1065833568572998e-01 -2.4940799176692963e-01 2.9989185929298401e-01 1.1794283241033554e-01 -1.3688930869102478e-01 -3.0739301443099976e-01 9.2655234038829803e-02 -1.4868522994220257e-02 -1.9580939412117004e-01 -1.2415110319852829e-01 -6.6459321975708008e-01 -4.6017967164516449e-02 1.5802769660949707e+00 4.8462969064712524e-01 -1.2544008493423462e+00 -1.3792467117309570e+00 1.2969294786453247e+00 -1.0669655352830887e-01 1.7919151782989502e+00 1.6823509708046913e-02 2.1921298503875732e+00 8.3548560738563538e-02 -2.8394815325737000e-01 2.9817971587181091e-01 6.3085868954658508e-02 1.0376083850860596e-01 -5.5870190262794495e-02 4.0350720286369324e-02 2.3400175571441650e-01 -3.1680712103843689e-01 1.6875259578227997e-01 4.3385340832173824e-03 -1.5244808793067932e-01 -4.9160468578338623e-01 5.6741580367088318e-02 -1.6881220042705536e-01 1.0825839042663574e+00 2.5053492188453674e-01 -1.3598106801509857e-01 -8.4583258628845215e-01 7.6616477966308594e-01 3.9720404148101807e-01 1.2881121635437012e+00 4.1415832936763763e-02 1.2689590454101562e+00 1.3938935101032257e-01 8.1796474754810333e-02 -3.9957812428474426e-01 -4.6780928969383240e-02 9.0441328287124634e-01 1.0550658702850342e+00 1.0420845746994019e+00 1.2321048974990845e-01 -8.6302205920219421e-02 -6.3948583602905273e-01 1.5329709649085999e-01 1.9669975340366364e-01 -2.1835446357727051e-01 -3.7089842557907104e-01 2.4815286695957184e-01 2.8943085670471191e-01 3.6941417492926121e-03 -2.7260008454322815e-01 -3.3206600695848465e-02 -1.1144059896469116e-01 -3.3118374645709991e-02 -1.8631105124950409e-01 1.7923107370734215e-02 -3.3310953527688980e-02 -3.9795389771461487e-01 -1.1645548045635223e-01 -5.7434403896331787e-01 4.7416368126869202e-01 -1.2095511704683304e-01 3.0513545870780945e-01 3.6074733734130859e-01 6.3728846609592438e-02 5.5459733121097088e-03 -2.7433650568127632e-02 -9.8029896616935730e-03 -3.3558890223503113e-01 -4.9246853590011597e-01 1.3267143070697784e-01 3.9914783835411072e-01 -2.3765258491039276e-02 9.7970694303512573e-02 -1.0353344678878784e-01 -3.7766930460929871e-01 2.6375403627753258e-02 3.9053118228912354e-01 -1.3822074234485626e-01 -6.7416213452816010e-02 7.4741572141647339e-01 -1.6706866025924683e-01 2.2892807424068451e-01 6.6549879312515259e-01 -2.3249380290508270e-01 5.3902510553598404e-02 -2.5231632590293884e-01 -6.0072507709264755e-02 7.7593110501766205e-02 1.7085348069667816e-01 4.9309652298688889e-02 2.5781732983887196e-03 4.4286492466926575e-01 -7.8381054103374481e-02 -9.1446332633495331e-02 2.8493481874465942e-01 -1.5837536752223969e-01 1.5135097503662109e-01 -1.0349223017692566e-01 -3.0776551365852356e-01 -9.8113618791103363e-02 3.0385610461235046e-01 -2.8017413616180420e-01 -8.7244115769863129e-02 3.1628194451332092e-01 -2.2080006599426270e+00 2.4655984342098236e-01 1.6968094110488892e+00 1.0985193252563477e+00 -6.1262410879135132e-01 1.5486036539077759e+00 -2.0970785617828369e+00 1.8647830188274384e-01 1.2132489681243896e+00 7.0346969366073608e-01 -8.6699411273002625e-02 2.3479542732238770e+00 -2.8328675031661987e-01 8.7634146213531494e-01 -7.3730218410491943e-01 7.1564906835556030e-01 8.9499425888061523e-01 -1.6425278186798096e+00 -2.9502150416374207e-01 -1.2898790836334229e-01 9.1121502220630646e-02 8.5415452718734741e-01 -2.2058444097638130e-02 -1.1460097879171371e-01 -2.1535845100879669e-01 2.8163903951644897e-01 1.1299312114715576e-01 5.8540558815002441e-01 2.5648066401481628e-01 -6.4362484216690063e-01 2.4949717521667480e-01 3.3770123263821006e-04 3.8373059034347534e-01 -1.8954332172870636e-01 -2.3308202624320984e-02 4.6606384217739105e-02 9.5497441291809082e-01 7.4344478547573090e-02 -5.1519673317670822e-02 -5.2525115013122559e-01 1.5820698440074921e-01 -2.3484960198402405e-01 9.6573248505592346e-02 2.9963601380586624e-02 7.5816027820110321e-03 -3.8317021727561951e-01 4.8891319893300533e-03 1.2786194682121277e-01 -3.3554312586784363e-01 -5.3498291969299316e-01 -3.1108599901199341e-01 2.4595326185226440e-01 2.6649037003517151e-01 -8.0341917276382446e-01 1.9508571624755859e+00 9.3308323621749878e-01 8.8857841491699219e-01 5.7680439949035645e-01 -1.3459655642509460e-01 2.2642463445663452e-01 -3.9935566484928131e-02 2.5826951861381531e-01 9.5799490809440613e-02 -1.3486774265766144e-01 -1.5941841900348663e-01 3.4339988231658936e-01 1.3816240429878235e-01 7.3497228324413300e-02 -3.9498880505561829e-01 -4.1059193015098572e-01 4.1121696121990681e-03 4.0045887231826782e-01 -9.4247691333293915e-02 -2.9949742555618286e-01 -3.5891079902648926e-01 2.0104140043258667e-01 2.7464041113853455e-01 -3.0116736888885498e-01 -4.1879758238792419e-01 -1.3879342377185822e-01 3.5098999738693237e-01 5.0072985887527466e-01 -9.9876627791672945e-04 -1.0058105736970901e-01 -5.5539399385452271e-01 2.8491106629371643e-01 2.2109939157962799e-01 1.9839321076869965e-01 6.3491284847259521e-02 8.1887707114219666e-02 8.7352357804775238e-02 -1.1282321810722351e-01 2.3157227039337158e-01 8.4877699613571167e-02 1.5258771600201726e-03 -2.0316699519753456e-02 -2.0900881290435791e-01 -7.7673101425170898e-01 1.1209561824798584e+00 1.0906349122524261e-01 -7.8595316410064697e-01 1.5938546657562256e+00 1.6968655586242676e+00 1.5985943078994751e+00 2.4390015006065369e-01 -2.0649816989898682e+00 3.5119034349918365e-02 2.5498014688491821e-01 -5.7223182916641235e-01 -5.9998965263366699e-01 -2.2620594501495361e-01 5.3167694807052612e-01 -1.2157878279685974e-01 3.4596449136734009e-01 -3.3634990453720093e-02 -2.5874879211187363e-02 1.8984203040599823e-01 -1.8830139189958572e-02 -6.3337790779769421e-03 5.5809475481510162e-02 -3.2801422476768494e-01 -9.4536322355270386e-01 -3.9836630225181580e-01 -1.5410581827163696e+00 5.1944460719823837e-02 5.6424427032470703e-01 1.9328354299068451e-01 -2.1312572062015533e-02 -1.8535564839839935e-01 3.1179337501525879e+00 -8.0235849600285292e-04 1.3289932012557983e+00 -5.6337529420852661e-01 -2.7041864395141602e-01 -2.9707288742065430e-01 4.4574931263923645e-01 -1.4438056945800781e-01 2.3506622016429901e-01 6.8669641017913818e-01 5.3964715451002121e-02 -9.7822092473506927e-02 -1.3638241589069366e-01 -6.2300708144903183e-02 4.8032518476247787e-02 -3.6067706346511841e-01 6.1600780487060547e-01 7.5704169273376465e-01 -1.7446491122245789e-01 9.7114354372024536e-01 -2.4644023180007935e-01 6.6286319494247437e-01 -1.7943072319030762e-01 -5.3520137071609497e-01 -1.7331777513027191e-01 -3.7201757077127695e-03 1.5648832321166992e+00 -3.8811272382736206e-01 1.2130977958440781e-01 -1.5486554801464081e-01 4.5796012878417969e-01 -3.8931060582399368e-02 6.1378467828035355e-02 5.2427923679351807e-01 4.0485236048698425e-01 -2.5963941216468811e-01 -1.3987420499324799e-01 2.3663607425987720e-03 3.5606345534324646e-01 -6.6919732093811035e-01 6.6335186362266541e-02 -2.4025623500347137e-01 6.0376197099685669e-02 2.3870017379522324e-02 -4.6477448195219040e-02 1.3886788487434387e-01 -1.6695109009742737e-01 -3.4844119101762772e-02 4.7266528010368347e-01 -9.6955243498086929e-03 3.7768754363059998e-01 -2.1620270609855652e-01 1.4345195889472961e-01 1.7631442844867706e-01 2.4078990519046783e-01 1.0618092492222786e-02 3.1013994012027979e-03 3.2375094294548035e-01 1.7488640546798706e-01 1.4123243093490601e-01 -4.2199346423149109e-01 7.6122423633933067e-03 -2.5702109932899475e-01 -3.5281059145927429e-01 -2.8559127449989319e-01 -6.5586753189563751e-02 3.1400901079177856e-01 7.8831724822521210e-02 -2.1503001451492310e-01 1.1208236962556839e-01 -3.4513387829065323e-02 -1.8850998580455780e-01 1.8301722407341003e-01 1.0783069767057896e-02 -1.4872997067868710e-02 -8.3612209558486938e-01 -1.0606253147125244e+00 9.8149627447128296e-02 -6.4354741573333740e-01 -2.1366089582443237e-01 1.3720697164535522e-01 2.5774997472763062e-01 -6.5034037828445435e-01 -9.1211780905723572e-02 1.3591076135635376e+00 1.7451141774654388e-01 8.8666713237762451e-01 1.1820138245820999e-01 1.5412831306457520e-01 -6.4951092004776001e-02 9.3469165265560150e-02 1.7040237784385681e-01 -1.6793347895145416e-01 -2.2094346582889557e-01 -4.5560002326965332e-02 -3.1990718841552734e-01 3.1643968820571899e-01 -6.3755307346582413e-03 -6.7729461006820202e-03 4.1503864526748657e-01 -2.9125073552131653e-01 -3.8843515515327454e-01 3.3769324421882629e-02 8.6157009005546570e-02 -7.4701830744743347e-02 2.9986312985420227e-01 7.2571165859699249e-02 -1.0958988219499588e-01 2.3178417980670929e-01 1.1370741762220860e-02 -3.4641906619071960e-01 -2.2790941596031189e-01 -7.1531397104263306e-01 -6.4733630418777466e-01 -3.5105094313621521e-01 -5.8733856678009033e-01 9.1568148136138916e-01 -1.6973648965358734e-01 1.9663445651531219e-01 -3.9196926355361938e-01 1.5633302927017212e+00 4.5492351055145264e-02 8.4745436906814575e-01 6.2530183792114258e-01 -7.7522832155227661e-01 4.7381690144538879e-01 -7.6303350925445557e-01 -1.1184012517333031e-02 -6.8679437041282654e-02 3.6506325006484985e-01 1.9315654039382935e-01 -1.1264334619045258e-01 2.3499156534671783e-01 1.0547252371907234e-02 2.1529273688793182e-01 6.6302078962326050e-01 8.9498990774154663e-01 -5.9248632192611694e-01 1.5848228335380554e-01 1.1030175536870956e-01 1.7222605645656586e-01 4.0102884173393250e-01 1.5235422551631927e-01 2.0617678761482239e-01 -1.4871796965599060e-01 8.5539752617478371e-03 -7.4461311101913452e-01 -4.3435284495353699e-01 1.8406800925731659e-01 1.9927787780761719e-01 -1.0543829202651978e-01 -4.1822600364685059e-01 6.4697152376174927e-01 6.6218465566635132e-01 -3.6817386746406555e-01 3.4832779318094254e-02 -4.4899526238441467e-01 -1.8665795214474201e-03 -4.7402726486325264e-03 5.1594775915145874e-01 -4.8776462674140930e-01 -1.2369894981384277e-01 -2.4009029567241669e-01 2.1345736086368561e-01 -5.1893538236618042e-01 1.2995506823062897e-01 -3.5505548119544983e-02 1.1973172426223755e-01 2.3937731981277466e-02 8.8366428390145302e-03 3.9920720458030701e-01 1.5493288040161133e+00 -1.2556388974189758e-01 -1.6366642713546753e+00 -2.7377412319183350e+00 -3.2065042853355408e-01 1.2022806406021118e+00 6.4776307344436646e-01 1.5757994651794434e+00 -2.2894483804702759e-01 1.9461699724197388e+00 1.4263594523072243e-02 2.5518041849136353e-01 -1.8037819862365723e-01 1.7571467161178589e-01 -2.6523086428642273e-01 -1.3303285837173462e-01 6.8493157625198364e-02 -1.5881672501564026e-01 1.8217350542545319e-01 -1.0756935179233551e-01 2.9043883085250854e-01 -1.0176006704568863e-02 3.4632333554327488e-03 4.0309491753578186e-01 -1.9652649760246277e-01 3.7292572669684887e-03 -1.2673161923885345e-01 -1.4706957340240479e-01 2.8605202212929726e-02 2.6507897302508354e-02 -2.4995063245296478e-01 -1.2567676603794098e-01 3.8725066930055618e-02 -6.8104237318038940e-02 -1.9017126411199570e-02 2.2290180623531342e-01 -5.4424152374267578e+00 1.6268981620669365e-02 8.6566603183746338e-01 5.4194426536560059e-01 -5.3616988658905029e-01 7.3154664039611816e-01 -4.2909580469131470e-01 2.1112957596778870e-01 2.2541660815477371e-02 -6.6163688898086548e-01 5.3070939611643553e-04 -9.5404863357543945e-02 -5.2600735425949097e-01 -5.6669306755065918e-01 4.6258661150932312e-01 3.5901053342968225e-03 -2.3042190074920654e-01 3.5238927602767944e-01 5.9616935253143311e-01 6.9327920675277710e-02 -2.8060540556907654e-01 -1.4257664978504181e-01 -1.3362696394324303e-02 8.2911002635955811e-01 -1.2535044550895691e-01 -2.6119813323020935e-01 -1.8037085235118866e-01 4.9074715375900269e-01 -1.5214025974273682e-01 2.5732144713401794e-01 -3.3590930700302124e-01 -2.1672300994396210e-01 -3.2311445474624634e-01 -2.1004436910152435e-01 2.9631759971380234e-03 -6.6491043567657471e-01 9.3175292015075684e-02 -7.3182374238967896e-02 -1.5297612547874451e-01 -2.7048268914222717e-01 -2.4774742126464844e-01 4.2760419845581055e-01 -4.5801457762718201e-01 -1.7424704134464264e-01 2.2834394872188568e-01 -2.1026641130447388e-01 1.3703868724405766e-02 2.5972321629524231e-01 
      </Weights>
      <Biases rows="224" cols="1">
        2.3046483993530273e+00 -1.3312244415283203e-01 -2.5221741199493408e-01 -2.0927324891090393e-02 -5.7564966380596161e-02 1.2003076076507568e+00 9.9780023097991943e-02 -5.2116107940673828e-01 9.0695309638977051e-01 6.1132556200027466e-01 4.8870913684368134e-02 7.0678107440471649e-02 1.8628753721714020e-02 -3.9919131994247437e-01 6.3289487361907959e-01 2.9917064309120178e-01 -6.0347013175487518e-02 3.1912615895271301e-01 -1.8781827390193939e-01 5.4357465356588364e-02 -1.7502820491790771e-01 -3.7131631374359131e+00 -4.0652256011962891e+00 3.2452109456062317e-01 -1.6206040978431702e-01 1.0005631446838379e+00 6.1142337322235107e-01 -1.3018469512462616e-01 -2.0541605353355408e-01 4.6626886725425720e-01 -5.8849595487117767e-02 1.3961209356784821e-01 3.7834636867046356e-02 -4.3957909941673279e-01 4.7072216868400574e-02 1.2087044864892960e-01 -1.5768392086029053e+00 -1.4257344603538513e-01 -3.9542009830474854e+00 2.8850015997886658e-01 1.4874880015850067e-01 2.1131098270416260e-01 -7.5038284063339233e-02 -1.0142374783754349e-01 -4.3893065303564072e-03 2.2790267467498779e+00 4.1490022093057632e-02 -3.1859844923019409e-01 1.0901820659637451e-01 1.0010693222284317e-02 -2.3311663419008255e-02 2.6354065537452698e-01 -5.0677172839641571e-02 -1.5646718442440033e-01 1.0056971311569214e+00 1.1070443689823151e-01 1.4245980978012085e+00 3.3545836806297302e-01 2.1651978492736816e+00 -1.8916474282741547e-01 -1.2392995506525040e-01 9.6408140659332275e-01 -1.4799474179744720e-01 1.7168544232845306e-01 -1.6598990559577942e-01 -4.0091282129287720e-01 -1.9772821664810181e-01 2.1495057269930840e-02 -1.9460713863372803e-01 8.7444871664047241e-01 -4.6352434158325195e-01 8.9249387383460999e-02 -1.8044997751712799e-01 -1.5915422439575195e+00 1.4787393808364868e-01 -5.6644570082426071e-02 1.2882695533335209e-02 3.5422520637512207e+00 1.4792205393314362e-01 2.3202167451381683e-01 7.9356841742992401e-02 -3.0920222401618958e-01 -2.8324013948440552e-01 1.1771078407764435e-01 -1.1710199713706970e-01 -2.6096655055880547e-02 -1.2382036447525024e-01 6.1589732170104980e+00 2.9079547151923180e-02 1.4288166999816895e+01 6.0090404748916626e-01 -4.6994595527648926e+00 1.9626922905445099e-02 2.8617700934410095e-01 3.8360735774040222e-01 1.4293067157268524e-01 8.0894552171230316e-02 3.8586668670177460e-02 -6.7943596839904785e+00 -1.6960407793521881e-01 1.4729139208793640e-01 6.6020041704177856e-02 -7.3488497734069824e-01 6.4047269523143768e-02 9.8425559997558594e+00 -1.4190845191478729e-01 -6.0225266963243484e-02 -3.5007598996162415e-01 1.2175645679235458e-01 1.1930599808692932e-01 1.9339415431022644e-01 5.5768078565597534e-01 -1.7484413385391235e+00 3.3394586294889450e-02 -1.9191499054431915e-01 1.9104132056236267e-01 1.7334643006324768e-01 -5.7753819227218628e-01 8.7787613272666931e-02 1.0705754160881042e-01 -1.0374620437622070e+01 1.1842376738786697e-01 -1.2987318634986877e-01 9.6771168708801270e-01 -9.1776645183563232e-01 7.8840106725692749e-01 1.5547998249530792e-01 -1.0284454822540283e+00 -2.8263708576560020e-02 -1.9087252020835876e-01 1.8356767296791077e-01 -1.0945247113704681e-01 5.8122687041759491e-03 -1.2045352160930634e-01 -4.7613698989152908e-02 2.0845361053943634e-01 4.5229184627532959e-01 8.2013107836246490e-02 2.8145899996161461e-02 -2.7970771789550781e+00 -1.2000472098588943e-01 2.6275035738945007e-01 -4.9708649516105652e-02 -1.5167874097824097e-01 1.3508588075637817e-01 5.9053272008895874e-02 1.3584917783737183e-01 -5.6450057774782181e-02 -1.2560732662677765e-01 1.4037473499774933e-01 -1.8398311734199524e-01 1.6873051936272532e-04 2.0362269878387451e+00 1.4479407668113708e-01 5.6298726797103882e-01 -9.7934998571872711e-02 -5.1926171779632568e-01 2.8503555804491043e-03 -1.8836403265595436e-02 -1.3349401950836182e+00 5.0184726715087891e-01 -1.8764924257993698e-02 5.1130867004394531e-01 -2.8545686975121498e-02 1.1056948900222778e+00 3.5268108844757080e+00 -1.5699994564056396e-01 1.8770310282707214e-01 1.4422978460788727e-01 7.9419627785682678e-02 2.7368387579917908e-01 1.6177666187286377e-01 5.4930657148361206e-02 -2.7427795529365540e-01 -1.8256863579154015e-02 1.3762767612934113e-01 3.5033822059631348e-01 -6.6903896629810333e-02 7.5110723264515400e-03 -8.9626693725585938e-01 8.3680108189582825e-02 -2.9200415611267090e+00 2.3020179569721222e-01 1.2859617471694946e+00 5.1127865910530090e-02 8.6752629280090332e-01 2.6724582538008690e-02 -2.0136578381061554e-01 -3.4924653172492981e-01 5.6014037132263184e-01 3.8352495431900024e-01 3.1407196074724197e-02 1.7539449930191040e+00 2.8595986962318420e-01 1.2739872932434082e-01 1.8998466432094574e-01 1.3035631179809570e-01 -1.4032509177923203e-02 -3.9577834308147430e-02 1.4049969613552094e-01 2.3355630040168762e-01 -1.7684888839721680e-01 9.6393311023712158e-01 -9.9848903715610504e-02 1.1916973441839218e-01 3.7724465131759644e-02 1.8947195261716843e-02 -2.4253666400909424e-01 -1.8557696044445038e-01 1.1068663597106934e+00 1.9233734905719757e-01 -4.3966930359601974e-02 5.3158456087112427e-01 3.7901923060417175e-01 -2.5375757366418839e-02 -1.3576263189315796e-01 2.1648067235946655e-01 7.4547384865581989e-03 6.4980782568454742e-02 -2.5113573670387268e-01 -2.3533217906951904e+00 4.0687951445579529e-01 -5.6440412998199463e-01 -4.7625154256820679e-02 
      </Biases>
    </Layer>
    <Layer ActivationFunction="0">
      <Weights rows="1" cols="224">
        2.6797708868980408e-01 -7.3488943278789520e-02 -9.2584133148193359e-02 1.0567970573902130e-01 5.3886394947767258e-02 2.4331986904144287e-01 -5.2865967154502869e-02 -2.4020358920097351e-02 -1.5946063399314880e-01 2.6610091328620911e-01 3.9873942732810974e-02 1.5231208503246307e-01 1.4794227480888367e-01 -1.6897182166576385e-01 -8.1578187644481659e-02 6.2082231044769287e-02 -5.9638772159814835e-02 -8.6224883794784546e-02 2.2029633820056915e-01 -4.8803463578224182e-02 -2.0144497975707054e-02 -3.0835521221160889e-01 2.8226485848426819e-01 -4.8529326915740967e-02 -2.2625166177749634e-01 6.3578411936759949e-03 -7.5442463159561157e-02 3.2798457890748978e-02 3.5247793421149254e-03 1.3812632858753204e-01 2.2614587098360062e-02 5.4931443184614182e-02 -1.1933226138353348e-02 1.0871758311986923e-01 -8.5441796109080315e-03 4.0916491299867630e-02 -5.6482601910829544e-02 9.2731386423110962e-02 -4.3052649497985840e-01 1.6505019366741180e-01 1.1826774477958679e-01 6.0410492122173309e-02 -2.4054042994976044e-01 8.5346013307571411e-02 -4.3350216001272202e-02 2.7209144830703735e-01 1.7820259928703308e-01 -1.7875958234071732e-02 1.6124688088893890e-01 -1.2453873455524445e-01 -4.2182195931673050e-02 -1.5071109868586063e-02 -1.0140336304903030e-01 -3.9256602525711060e-02 1.5497878193855286e-01 -1.3571873307228088e-01 1.4119455218315125e-01 2.6164360344409943e-02 1.6201205551624298e-02 -6.2044106423854828e-02 -1.9035731256008148e-01 2.1113939583301544e-01 3.4251771867275238e-02 -7.1375826373696327e-03 4.3332125991582870e-02 8.7497243657708168e-03 1.8191384151577950e-03 -7.3485240340232849e-02 -1.9092504680156708e-01 -7.3151983320713043e-02 4.7967672348022461e-02 -1.8484387546777725e-02 -9.8621398210525513e-02 -2.5612471625208855e-02 4.2367223650217056e-02 -5.2692569792270660e-02 2.2830985486507416e-01 -2.6488348841667175e-01 2.4304679036140442e-01 7.6714716851711273e-02 -3.7084179930388927e-03 -1.3986396789550781e-01 4.6047754585742950e-02 -1.1937831342220306e-01 1.0559935122728348e-01 -3.6635745316743851e-02 5.1455397158861160e-02 -1.4116932451725006e-01 1.3395141065120697e-01 -6.9233149290084839e-01 4.9537959694862366e-01 -3.6199802160263062e-01 -1.6130948066711426e-01 2.6048032566905022e-02 2.0012952387332916e-02 -1.4668668620288372e-02 2.3227094113826752e-01 -8.3866000175476074e-02 2.0752221345901489e-01 1.0229534655809402e-01 -1.6649776697158813e-01 -1.1206903308629990e-01 -4.6114105731248856e-02 -2.7418453246355057e-02 -5.6088674068450928e-01 9.3525893986225128e-02 -6.1189178377389908e-02 -7.7266141772270203e-02 1.4795718714594841e-02 5.7513300329446793e-02 1.6719337552785873e-02 8.9449308812618256e-02 -1.0444195568561554e-01 -6.7672401666641235e-02 1.5207101404666901e-01 1.1521315574645996e-01 1.2834097445011139e-01 1.7156386375427246e-01 1.3782286643981934e-01 1.3707251846790314e-01 -8.6791765689849854e-01 1.4251951873302460e-01 -1.1716638505458832e-01 -1.5009970963001251e-01 -1.5098726749420166e-01 1.0882021859288216e-02 1.0878352820873260e-01 -3.3366698026657104e-01 -7.5403987430036068e-03 1.0211125016212463e-01 1.7993867397308350e-01 7.8862451016902924e-02 2.1284197270870209e-01 -8.3588980138301849e-02 1.3596211560070515e-02 5.4672688245773315e-02 4.9353688955307007e-02 5.4727256298065186e-02 -2.9872843995690346e-02 -2.8304463624954224e-01 -1.5606024861335754e-01 -9.7203105688095093e-02 2.7047710493206978e-02 3.0180178582668304e-02 -5.8275431394577026e-02 2.4018054828047752e-02 -2.1567130461335182e-02 -5.4905798286199570e-02 1.8641382455825806e-01 -1.5467278659343719e-02 1.0062285512685776e-01 2.2192186117172241e-01 2.9866172000765800e-02 -1.0880449414253235e-01 -2.2972084581851959e-01 1.2622683309018612e-02 -4.0765531361103058e-02 5.9030380100011826e-02 2.5605093687772751e-02 -8.5352316498756409e-02 -4.9019279686035588e-05 4.8213090747594833e-02 1.9331504404544830e-01 2.3736149072647095e-02 -1.9807152450084686e-01 2.4162168800830841e-01 2.1193708479404449e-01 -7.2212420403957367e-02 1.1910163611173630e-01 -4.9791131168603897e-02 1.5863867104053497e-01 -6.1911188066005707e-02 -2.6903973892331123e-02 -1.3189113140106201e-01 4.4575512409210205e-02 -9.6191331744194031e-02 -1.8700550496578217e-01 -1.2247976660728455e-01 -9.3801863491535187e-02 1.3165202736854553e-01 8.3248071372509003e-02 7.6023086905479431e-02 5.3785707801580429e-02 1.8039254844188690e-01 -3.1066305935382843e-02 1.3440483808517456e-01 -1.5393681824207306e-01 1.0948272794485092e-01 -1.8132495880126953e-01 9.5214866101741791e-02 2.4523267149925232e-01 8.8014617562294006e-02 1.7113816738128662e-01 -1.3953134417533875e-01 1.2379205226898193e-01 -6.5629750490188599e-02 5.7918313890695572e-02 1.1671771109104156e-01 -1.4794458448886871e-01 8.1629067659378052e-02 1.6643905639648438e-01 -4.5326437801122665e-02 -2.7231150865554810e-01 -1.5332445502281189e-01 1.2542023323476315e-02 8.8050991296768188e-02 -1.3082520104944706e-02 3.8885742425918579e-02 -3.9586760103702545e-02 3.6542106419801712e-02 -3.8448311388492584e-02 -1.9155763089656830e-01 -1.0256133228540421e-01 -1.2821520864963531e-01 -2.2895777225494385e-01 1.0736534744501114e-01 -2.9290871694684029e-02 -2.8424134850502014e-01 1.2292847037315369e-02 -1.2723352760076523e-02 -1.5678441151976585e-02 9.7403399646282196e-02 -1.1798166483640671e-01 -4.9899029545485973e-04 
      </Weights>
      <Biases rows="1" cols="1">
        3.8916987180709839e-01 
      </Biases>
    </Layer>
  </Weights>
</MethodSetup>
